sampleID	factor_1	factor_2	factor_3	factor_4	factor_5	factor_6	factor_7	factor_8	factor_9	factor_10	factor_11	factor_12	factor_13	factor_14	factor_15	factor_16	factor_17	factor_18	factor_19	factor_20	factor_21	factor_22	factor_23	factor_24	factor_25	factor_26	factor_27	factor_28	factor_29	factor_30	factor_31	factor_32	factor_33	factor_34	factor_35	factor_36	factor_37	factor_38	factor_39	factor_40	factor_41	factor_42	factor_43	factor_44	factor_45	factor_46	factor_47	factor_48	factor_49	factor_50	factor_51	factor_52	factor_53	factor_54	factor_55	factor_56	factor_57	factor_58	factor_59	factor_60	factor_61	factor_62	factor_63	factor_64	factor_65	factor_66	factor_67	factor_68	factor_69	factor_70	factor_71	factor_72	factor_73	factor_74	factor_75	factor_76	factor_77	factor_78	factor_79	factor_80	factor_81	factor_82	factor_83	factor_84	factor_85	factor_86	factor_87	factor_88	factor_89	factor_90	factor_91	factor_92	factor_93	factor_94	factor_95	factor_96	factor_97	factor_98	factor_99	factor_100
HG00096	71.1646242289921	25.9127916074754	-36.7055293740406	-94.3950833872278	11.1384447936773	-20.163509865864	-3.94717636717345	65.0011735049268	-78.4370605858736	-14.9376591228063	72.6419435768911	0.783697078174313	-85.1566005434453	-218.44412611237	-130.866387848239	97.7107686300731	-71.3599490922767	33.3890961053062	-100.383176455086	15.7496371762932	-6.40218757401152	-15.7499844636414	-19.3253823655737	-113.244089022769	-73.9999080110753	85.6711540607972	-92.186806906263	85.1303533207783	48.2453233010777	58.3319688007185	-112.493736861457	-109.266364328039	-82.4675916144667	59.4951017691173	107.775855458936	-105.157625239709	71.0758011471298	-113.444009723458	58.6363584632559	13.8130520062476	-32.9752641810344	46.1978718886486	-100.139732690891	-19.5295917343274	31.9535160243746	13.2130584652636	25.7181335183726	46.4475599734792	-7.41583710946681	-11.9204358988323	-49.9356222232995	61.4824069489794	45.9581931581511	113.339767652656	-27.1034151999845	8.72406446610977	69.7400419618873	-102.821898652799	30.0169234789895	-89.5463388211245	56.9392108737584	34.4386304962914	39.9084779203985	69.4028677647672	78.4832294213704	-35.6915185806211	-39.1750629890899	-75.6823973162998	-55.0029888200912	116.185255169852	-67.8845914109568	3.20469821842581	-37.7466163211704	6.4707021568012	-36.7555236417933	109.09198652912	-69.808802534983	83.4262951394101	73.4383164970089	-47.6346017830839	4.9077177740525	-68.5313613507328	-60.2791334434609	-44.4278907304592	49.7374033498315	-51.380139247031	86.7364185192845	6.89560968919541	-79.1284766626888	-0.749796654029349	34.5783320696956	16.4076459024033	61.2263289471603	-52.2829324106604	-90.4642218437042	26.11348087111	18.8170834221288	-47.3223114192524	41.06293546333	19.1761192834288
HG00097	18.3274734335411	52.7002875733197	31.6308017278325	-120.878217115858	-64.0109982115093	23.2380101897881	1.76120392167061	74.8741258409266	-91.404179149254	-30.2461488976102	76.0223978273069	-43.6949171738575	-80.9909445419067	-47.0497006707723	-62.9968049114231	88.7771998294676	-69.1306049526969	6.11585913633915	-102.012422046345	70.1502008900532	23.3368564587519	-18.2647332511484	-11.216748381604	-120.31405090186	-74.8503370512806	106.62883904359	-86.4829496032886	63.4768628391381	26.4640671677749	77.3411727758642	-55.0788142492756	-67.0086588781346	-93.3354988062152	50.6344246717651	59.2648946172414	-75.0664910605091	130.401870002165	-97.9518515209156	25.7451220290174	-28.5941329394842	-33.5162802759271	-20.0782017385435	-74.7832783063547	-2.94370447525229	70.7206346318811	-61.0161772106086	61.9127809616061	87.7915247430861	92.2259032457172	-21.3506363428945	11.0992832891252	39.1513957385649	96.4198835070831	78.6898671514509	-101.324366822948	-61.769986024336	89.9931978495726	-2.41661041074337	30.0677116728142	-61.2758151267324	62.1145662154011	69.7894843342782	117.036664009306	62.4998804445639	46.6009709098176	2.14076811974857	-55.8946777273579	-76.6761638033667	-53.8416914604401	131.993911376464	-61.9961992385817	62.5620261540448	-52.5922034777308	-21.5454268081823	-46.4944213322551	31.3930159789474	-61.1839036078126	-64.023212043368	65.7759613406482	-11.1581052719909	40.3244720955	-70.0844609089442	-54.780294006974	-45.4163075528521	-19.491357806861	-56.7202843254793	74.1140740960043	-4.75051993170303	-56.3445417582066	13.3422491600354	-4.95604026174562	0.347689389017752	28.9639760659504	-50.5987687757577	-125.27688858812	66.2206069697043	-48.4282783157343	-66.8398909340817	96.1126618104455	-28.783528632242
HG00099	160.598905883979	40.369562266331	-58.5449560143993	-59.9916155797357	-3.83500556437323	-2.19724091496558	-26.7455158079573	59.0878145305484	-69.2168482966264	-30.3304405677835	49.3923981467615	65.2271727080052	-78.5380421285193	-34.6752717120407	-62.5073127000499	92.2572140229267	-47.5258438444969	27.5047786618021	-95.0910129383995	30.6729777622462	19.3248116987668	-26.190191640188	-16.8471369334013	-68.6242889718102	0.989282032101428	89.7539939806722	-89.8449208463107	42.9566713719575	55.5346890760163	120.437637838641	-106.799807014056	-17.8706407297815	-114.460015957391	67.4761581930984	38.9576192623289	-80.0610992496331	77.4707022036186	-96.0348265392042	33.3906610613474	16.649684881899	-55.9107002618668	-4.60804023990562	-92.37022976825	-43.1211784501631	34.6081314445898	-38.0607436964051	-7.82890749786098	68.7339852243136	114.193401266604	-29.1995406619087	-26.2450328435162	44.7961531458764	18.6146861236794	57.6093132532241	-33.6721046001089	-102.241330850189	60.0325011099988	1.6373656928964	53.3661688660754	-41.3078849852141	38.7325892458943	46.5621696108009	103.765499988021	119.011728156117	-9.95253760966582	-50.1443308617436	-35.1035547572358	-65.7153038043623	-49.4087120160575	95.7426132860618	-22.9748268108871	-10.5630147626448	-32.8253571882861	-28.7243046957083	-8.76963645049989	119.849509550696	-38.2123460537616	66.0409879094644	47.7946066054856	-52.6155868547596	54.6205361659142	-64.9414275069862	-74.1513202474462	-69.6017046208372	-24.6724442710973	-54.7626594230437	67.0942163822082	7.99251777734116	-17.1373055576507	13.2110676992113	-8.01103214082933	4.93903106837564	-36.6276145693049	-68.3803003894451	-29.7860127256718	61.287447876605	-10.7838489877483	-45.8428991077958	-43.5530186656296	37.2400849718827
HG00100	121.006906933651	23.8134207708471	-21.5388727428289	58.2875950943702	-45.5843796730495	-46.651045707639	-32.7538218096501	82.4185244514722	-69.6361192511192	-37.0129151834694	73.3956210285308	-2.39544382991118	-89.8760250547805	-126.946155433084	-109.282534965189	110.277762929659	-68.7106855686584	40.7854732100872	-75.4895838463034	123.993921111047	-1.26224901522706	36.3101032246512	-69.241253442632	-16.7480467874124	-39.8753553331	103.649148944977	-84.4651890994022	45.8110603837696	18.7445504209459	-69.0544200693432	-109.449378879452	-93.8549624705053	-101.090554036548	-17.3747633132968	64.3066166371484	-60.2960901851312	85.3660640974253	-84.7819796664448	31.0273263462652	24.1630171987903	-67.0735494806457	57.5495953597029	-107.54537447514	-132.107619625246	88.2916374059579	-80.3252706096161	45.6256850346508	-63.0379009211375	103.891846125523	-24.186023036424	18.8205006276502	64.0747834303741	61.3100795406856	79.0653013662709	-57.2289838556329	-56.9652546945499	92.8368869928592	-44.9468130240893	77.7262894604712	-54.5079557080591	-31.0117113174055	80.5761084908272	59.1928246199307	60.5228262010983	4.91922882767057	-76.6578239511816	1.92855026052864	-44.8053500642707	-59.4080070443855	33.782393592877	-60.4057240816008	72.7027802719749	-29.0240167374488	3.21480974144403	-36.9688991934617	52.2741039378169	-98.6704203356811	-59.3597326770697	44.7249309920164	-41.6224969311054	22.2486014957121	-80.812576526851	-80.8690393812886	-51.0454325451699	45.1380720145304	-59.7727620029178	66.2195666136983	-3.15253621165392	-17.0136255161804	-15.8620173577527	40.120567313438	-91.5115827590144	-17.0068574667341	-67.5677992536021	-64.3730146567373	51.5001604242501	53.2036728378449	-17.2985479975452	-12.4790903690006	-7.73956839759257
HG00101	133.553485286202	56.2720919820224	-20.284740594568	-95.062948578371	-18.1713796424429	1.96199136697575	-14.5464158072515	65.2734357190058	-92.0563651015393	-45.2742246144449	80.1508377450151	63.4481178502523	-51.4890757197834	-46.0557108873936	-89.4998034079506	104.363015627104	-82.463062377642	38.6440990696771	-76.1451536861708	18.7876067054513	-1.05478474834588	-70.7406101561883	-50.6403259745724	-32.3608637869636	-40.1856280246938	88.0155443537493	-98.3912399906843	113.327227267753	31.4509834890912	60.865242787255	-83.7418733469247	-62.4480735423096	-38.2097005038445	20.0149550571024	60.0020945625076	-67.7182548807174	66.94616985596	-91.7830206637495	38.180721916868	-15.4456938348641	-52.5104115652407	103.512202927518	-41.9413964302793	-47.0814154677951	134.32196707839	19.2213990973611	71.4970215610679	79.9611987802989	99.892342553317	-15.0002493961293	-6.29881987892358	62.3313984378178	39.5219763817863	36.5086049573127	-35.1549436240545	-79.2400721620014	80.3537946361342	-22.6918867964346	75.6810534147548	-80.2626441188381	86.9147586114516	67.1867988789741	41.296023469724	66.6078627191727	76.4206806045281	-93.91035679169	-13.3409880003563	-53.5912417864077	-69.3512312944317	63.8027581836959	-69.8990756767521	115.573071457844	-54.0993281121309	-34.5164742786755	1.61860870688991	174.137372461669	-57.3236570514468	45.2666877710522	66.7097421448064	-17.5397589466135	54.5360349385297	-66.4553011492877	-29.0627740874584	-55.2648930447628	-0.399231732028881	-74.6063715558791	59.1583312044647	-8.26629342436551	-51.4774279430516	10.0490110130305	3.97925594081244	-99.9339371135573	7.59561541536139	-66.8489977834899	-125.011515613091	29.2888755139648	-30.232009664516	-59.7853882531846	15.1643574654824	1.28319158299681
HG00102	60.9881606119483	41.8562273728346	-36.6608723640298	-114.506023524043	-40.4373696841327	-24.7272346533237	34.6945748247312	81.3600765030782	-103.225854573625	-30.6854006498922	58.6886701722787	-127.56791677812	-102.438461515007	-80.0030859003811	-117.729988015453	109.325208220632	-48.5932866929184	31.6411635538171	-99.8096187688007	-12.6857845536445	30.004292428094	-5.24150571382017	-38.1484921528768	-70.805223620277	-72.2177123170982	20.9485860964391	-67.1504310014682	73.636153437583	14.6535182849075	82.5544220528641	-90.9965331568991	-32.9133698145729	-48.8232232331764	31.8982061753461	18.7831234569609	-46.7261261362042	101.136739665664	-104.528202194672	57.8398915912488	-13.8503777370828	-32.3957334749429	-24.6451594817165	-79.9688573727721	-32.2806517568861	38.4419044519829	-65.0898120295738	6.65731048016447	-12.9871617360275	2.60730939398882	-22.042042002492	-39.689220941821	33.8794114310621	70.3200185078893	86.3145434353554	-133.132142348214	-91.5724452555424	84.6652630064416	-46.0410224583408	59.0678834522726	-61.6819387649983	63.261350290577	99.8035218649461	40.1557613525256	96.3229238493275	41.8456575492147	-13.5778448346908	-28.8257919992021	-53.2500895177466	-56.8518749244877	-13.9672416134234	-39.5216971453705	71.6213839698559	-53.2022983725529	-8.28046804736868	-42.593386795803	72.6639911891846	-83.7061915515644	19.939946332917	80.789870240767	-13.2278678674504	39.4974359434975	-36.1552047869161	-36.7377432047384	-73.7435560431994	57.7695984680701	-83.3031064733438	85.7856864880015	12.8198408295972	-68.0615820210647	-22.3715378020309	16.7864991120494	-8.45205160534731	43.7709016607445	-52.3424224050237	-73.4787660550169	54.1344058091294	-5.82718760763279	-95.3137325041603	59.5820435721793	34.0443583200786
HG00103	64.5429057811344	38.7195109224544	-26.9198283240191	49.3114794888321	5.62674781085904	6.33400260270126	-12.3892594471404	74.2994358341016	-100.299081632586	-48.8293511240426	53.4661538210551	-127.85370018211	-48.9216066657728	-43.335265546836	-106.240140384676	98.6886908032719	-76.2070001816007	29.1643700589141	-37.401730965844	75.3060032705442	39.6328673834	-2.03397556775031	-47.4217723934831	-71.3708944690248	-70.1079787194972	43.379848199301	-63.1844157570348	55.5726949324431	-16.3150421490465	82.1531654938804	-74.5193448201897	-28.1156999810791	-95.7814568790578	3.51076040169398	140.982621614421	-105.585960921594	55.84934243109	-122.526365232287	36.304930689633	33.5824988566928	-58.1974193445343	6.17498531971204	-147.783035090151	-23.7820659312665	111.19818178719	-43.2771132056401	66.263746808364	24.2617416842859	-30.4095501688298	-10.5337501752888	-72.5934718835898	96.2902352908	44.3967472014782	66.283833486798	-57.6332469109996	-80.5184454148747	80.2098531546979	-65.773279645265	28.021777320285	-57.4113647279729	-31.9500101066738	96.1492211066017	87.9223738902583	56.2782499157902	10.2628811469399	-29.2239179674767	-5.20532384435819	-78.4465104999094	-64.8577573785583	-8.1376391040924	-57.549506901342	54.5915770556517	-41.4909784943757	3.00742907326898	-42.9246081426057	63.1324051958807	-85.7856315227636	132.023127288265	12.1259918783159	-68.397219706695	135.187988759806	-59.95183267273	-52.641588141795	-66.3528204194547	3.01637833636581	-70.9887950505576	62.0628759903458	-1.43631664748087	-80.4007502703765	7.73139843111338	-9.32971702025946	-44.3941375150167	-3.83095859441171	-38.6827934007578	-38.5135445265635	36.5310469657234	-64.3830300876685	-59.9501540061378	32.9790060113111	15.4603021376379
HG00105	108.744671980169	44.5841891264999	-40.8455117797765	-37.4066190401956	-39.3318158437964	-18.2865121787752	49.9266988818309	65.1066976771939	-58.6392879067506	-68.0138890464542	70.0860878374229	-40.270792929918	-74.4905671612351	-94.9619863833375	-110.670582936212	85.9906888215061	-51.7872251201364	56.1841868391773	-132.590662828342	-20.0580733558503	-16.9814098989533	-9.03615196228656	-17.2289962508908	-80.5249322926358	-33.1177276444062	-46.6707461668888	-105.378915114468	107.967324503074	10.4765794227925	37.0861330077261	-44.6508146184221	-100.596235015681	-102.144557127053	-8.65950293205167	126.855270249949	-78.1088124980159	70.0191567444922	-86.7196945176644	35.4759302587357	-29.4454270505478	-82.473915147205	21.0003570617402	-103.984930595778	-116.90071791647	85.2309620483776	-0.308722743250431	-58.9300471033161	6.8452321741524	23.7431078795284	4.09062683086563	23.0233883259929	63.3230394624323	22.7413315690048	-0.0212694124722645	1.51539491848852	-110.010432302388	75.65966776747	-46.3632361611481	112.109070373352	-47.8169368219839	90.5172597090658	32.1731135014321	73.6927350545883	22.1861367143874	80.4917479170751	-20.6722109161369	4.27525476776758	-74.6090613146618	-54.6875697852404	78.3481126222887	-42.9047319089975	51.1579134067696	-42.910540221173	-22.4676371654319	-68.5605090572041	184.432018126439	-70.3810052060716	23.7771175036889	48.62683228241	-71.7994810744497	25.9011245883083	-43.1038643499642	-10.7566720954559	-34.8206717249153	57.3968325351273	-55.0756972735254	48.7878173675677	-1.8876395461993	-13.4741810404107	-10.1669543116569	-25.3788903229987	-8.55454197786079	10.59762724135	-32.9334116252043	-92.2439332479688	82.6566193560303	11.9818870723935	-108.602661009305	-74.5780940968279	34.9431922958256
HG00106	2.88695383157443	34.7469326977219	33.8445619626445	-77.5549040061365	7.43378487895306	23.2225796572008	-70.8773969318414	70.299917218111	-96.5143236318489	-36.5135697821263	59.1673567012425	-30.7396778790675	-102.174204130555	-88.9975824724034	-111.642069494639	160.440156382885	-77.549079890761	71.2587262338829	-94.0640063060867	-12.219988780694	10.9273208922787	-11.8665993011332	-63.6164733518786	-69.739476263715	-38.6037541385313	15.9106391622462	-90.9229841436883	122.064332788714	-29.4319615365155	59.178331096544	-81.6767306772558	-53.2942641995852	-61.69746696163	57.127719057199	25.1448800968486	-66.0029548574477	105.767955619475	-88.935322022161	48.8790980702552	12.8101717396813	-73.8726046968402	29.2469483462049	-91.4319402437848	-69.9781944515523	65.0894178464346	17.145577473601	19.9342495668544	46.9401069112583	65.4703226359955	-20.1644789974785	64.4059093054984	49.9110324372859	35.8140044357055	-1.04015892395277	-61.8298819546245	-81.7372410891245	75.0533876505903	-40.1683097978912	58.7862217687456	-67.6137278782841	19.3851293463812	91.9548701209843	45.29252875726	58.5104864292004	-17.1173731871471	33.6645996257093	-29.9508286728446	-61.9318526959867	-75.1340776778939	75.6768089406406	-45.8478426750073	59.3451822843829	-33.6102596003223	-29.4826915767961	-7.12540765222358	187.939821615203	-60.7406259183186	112.077095665765	80.9251394532743	-29.3588862116482	-10.9751599929276	-75.9899979453282	-62.4981053047288	-76.2661779609442	-33.7133032834968	-37.3111097846295	91.1943283148102	3.97734315541966	-31.4401372181604	-4.43119393585878	-36.1235592435703	5.83531863975192	55.5729644013429	-70.1459678431192	23.2353958884957	23.4280191461751	-3.56974219121187	-144.902416788919	83.2369982259993	34.5135140356129
HG00108	105.101931229728	34.0133889607519	3.82595329589653	-43.4038653078697	-9.76414884302019	-34.5721541728614	-51.8336964030136	62.6131340752474	-109.312974537699	-48.6461637606341	87.289265617835	-17.9000016810521	-64.3800236816852	-55.5756420136029	-89.5100980382608	121.199017401474	-91.4127140524945	28.4828610259641	-138.781084884829	54.5542874624306	-45.6907895924847	-3.0225350264546	-25.4441333278444	-56.119966031344	-82.0005767044739	-0.0648885439992135	-90.0697103853636	94.6765630370431	62.1713560674343	54.7479334385451	-96.7633271094341	-58.4346298395285	-74.0663253490444	78.7670047270641	44.487771142724	-156.615344547386	127.121797081766	-110.918388542168	68.1795033875522	-31.9555786129262	-45.6929554446174	78.5124117941676	-95.0645354373644	-67.6859629798504	41.6275170886264	7.00539376590664	79.2168012665551	22.2741587882995	56.6596242323172	-27.4735548212487	72.3254388150213	50.5568246654043	14.4975030277681	63.9507792637014	-75.544138675235	-96.2910406445167	94.5293375819755	-46.2173838359595	42.2766383721453	-70.9474992064898	52.439930505223	53.1678679905308	93.2058026428347	74.7816293362919	1.74792484724518	-21.6489220357259	5.17214435469754	-69.02447119705	-58.8645166317126	62.337359609461	-57.1200702191249	57.8355002047846	-41.1779211048849	-51.535461695033	-68.6858790879497	41.7890532074641	-21.7097166964007	20.6824178785922	33.7346688629718	-85.1549614491192	45.3241945396297	-62.3286951526044	-66.8755907071694	-30.1188169083378	75.2685021504883	-57.6366575281489	63.4863213902011	0.508104299960872	-109.671252276835	-4.7015958358844	-91.8711238266895	-14.8657765056283	-28.9556405143718	-72.5039076446241	-130.023119842536	31.6906821513113	-23.7521776455034	-41.2334501679865	6.5753042680027	4.15236284329607
HG00109	-3.75729877904249	42.9239219285047	-18.5239056064677	-64.1833587331626	-51.4641134476749	-23.9640239482722	35.3258855638472	58.5696600393102	-79.8438865553515	-26.3922265793023	73.3555717406628	-76.1228822876375	-80.4522120675554	-92.6546135828401	-108.482315990239	107.452181356112	-80.6351372238616	68.8738539445494	-104.154939528164	59.74888961367	-46.1690427911834	-35.5627979587043	-24.2842980102214	30.0458084980395	-41.5245489009323	41.9628364351462	-76.9585265504754	87.0427205419227	33.5992237774104	79.9903895422786	-66.7018831066742	-40.4089802670686	-67.7319171760583	51.3728762095925	89.1087755706405	-83.0702068454372	120.771018773044	-98.644608895548	82.8538302642852	38.188198890514	-22.8644178703544	26.548812393482	-106.033938001937	-37.0156380700188	127.325465658158	-51.4781434063678	-45.1109762136111	-32.0384296280239	-6.3117854102609	6.21576061582643	12.4174393005581	38.4869621705129	31.46982525561	22.2905136974187	-104.825187737172	-37.0054772345744	78.5165424877772	-109.839160315879	17.8039072447247	-52.87731675551	9.27173446549361	124.775782224544	50.9943010317008	79.3247583227458	60.1333010366278	-7.14791545216288	-9.96910186381606	-38.4730743793848	-53.9554480404934	189.230630733826	-54.8786822457924	-2.7941669765768	-42.3576589285006	-49.7283093744719	11.6700902664043	69.6945095713989	-129.372446508004	22.4572383023805	147.592160271471	30.0659924250984	119.603134700338	-59.4378947021198	-47.0781439441541	-55.3910591839344	-12.5502949285576	-72.6436844749345	90.6407629237365	5.12213883723573	-107.132775480916	-1.09019184185779	-104.56274961497	-88.7663841342392	-60.5527582561871	-56.7325171139408	-4.18941892383579	87.4143044940156	-2.55729728198499	-39.9783748261449	-4.76017402780371	-15.3255526175442
HG00110	48.3811757691332	38.0101263507438	-44.7390297430487	-14.5345233505298	-11.1469036101781	-5.56898714190665	-14.285974684803	60.3548631976333	-81.2029415623328	-46.9734852602696	61.8617046539923	-11.488779411853	-79.5926380105205	-40.3907622309545	-80.8793097296354	116.17503542071	-80.0957058387525	38.3175070484372	-27.241949067024	55.2042979356365	-33.5290577766264	-27.063828485135	-48.711457890368	-28.2457145617043	-27.5522124615596	-26.9708697739096	-89.3029611970464	33.047178638252	21.347083198402	110.928607071693	-52.2003627791028	-45.5963009492194	-112.56135509886	26.7933069492211	58.9340602964367	-71.3207638996995	81.8460890234699	-78.8674325721406	33.7213571293668	25.2927526756438	-111.358852859818	2.96506189680294	-103.01021237574	24.4598689989579	12.0331986100408	-12.1671921210688	35.1108503771361	-23.5966113658331	50.6264706268267	-42.3733677080869	1.64216864457375	89.0615403638672	51.1463172567075	14.9663355253062	-41.4783557214409	-133.315228443578	113.962240168422	-54.3116897928576	78.9796747838446	-66.0357197287393	47.6685967610878	112.969014801554	86.7197841340744	-6.24236508646491	-45.8284309205642	-94.4579812333663	22.2415842759218	-78.3491145130517	-61.581320509363	64.8590910129349	-51.1655883791859	109.929017339998	-11.5015263526471	99.8618621999029	-23.304795528835	87.7706809069036	-70.4596940510619	-11.2671118124488	46.1450545317902	-64.8632522237488	65.3443299882759	-44.1466264398816	-54.1851557479646	-48.6660195566641	46.9198706234656	-55.1457214347579	82.6269097060401	3.12214242531351	-53.0658656950899	3.11118034136315	-10.446751824956	-107.069634605999	18.910047487271	-55.3653891856817	-44.6848497028466	63.0912688575292	35.0488939523393	-53.5716593652852	-40.166881051386	6.77247003267023
HG00111	176.307769518861	31.0829742516314	-41.3951568905471	-29.3696622624217	-60.5662844729173	24.2075306655367	6.64451576905922	68.2688855461791	-49.3329283005698	-67.7079942270503	89.7594247264882	-71.3273498301546	-36.0515672236901	-87.1205226933507	-128.936294196051	79.7026168168623	-87.1582582465327	21.4761220900775	-128.022143161412	-6.00011258575019	-11.106937422072	-65.4411523870533	-30.14506905783	-112.10439537114	-79.717215978398	-15.0222972416366	-100.379874062245	78.7662783074588	81.8736841014718	-12.2889051504421	-46.3983185789808	9.63129021814957	-74.1230105476831	52.6593573762536	46.6796347140614	-78.4038348990814	86.4729094820321	-59.659787069052	93.7522861576754	-8.6162868782289	-53.8047086368652	44.3042575741584	-48.7004012772856	-8.23701499953095	37.393006127833	-3.90868554610472	22.9383359478071	41.9029390518299	2.85702651178811	-31.1017634815362	8.65578330578458	61.53448590259	41.0761678677243	113.221414043742	-34.2171819954779	-39.1367623777418	63.2766387138094	-50.4618527708177	40.7975819856324	-59.6071493633914	41.7516897445651	42.6130262918988	23.2113660051406	43.8484590381299	-15.1777388958408	-45.5213623071405	-18.7649523120567	-117.07730214719	-42.4984061559424	125.63240963455	-44.0255714184594	-13.7939230647603	-23.9299325553041	-2.89169869042212	-39.5558020036709	133.422429356596	-27.1821887398423	43.8920817897151	30.3332080885879	-66.6785003571976	-14.6848603394537	-48.0700533889763	-18.7471644571263	-63.2722045730804	-12.0594169279595	-44.0818972445373	72.4048259979755	-9.65778853652987	-24.4667867833737	-10.9282211877034	-22.9181498565581	-77.7682998695343	-11.372736243319	-31.2477840679878	-97.731464576631	37.6343491438557	1.73057191591155	-8.04123536219506	-24.389523692194	37.7863278438269
HG00112	71.5055024822191	17.720281141412	13.9962003881254	-72.2243878254689	4.62529468012901	-17.1797572411914	-25.5359953149781	68.4703305973014	-47.3203576778662	-56.8390975441431	48.3483420336067	-70.8548700320085	-65.6562276287217	-19.1260311905887	-118.071041445417	112.86071945967	-60.2348984663941	43.7255767905346	-150.876896841629	67.885584985154	11.0626009264661	-36.5268953440224	-39.9711184500371	-147.999280764222	-53.3329593635837	-42.0776118609854	-52.1071386326349	66.7440936838186	3.55676858712217	30.5527712460209	-81.6580188818901	-33.2805424200609	-48.6351576305447	-4.97296428235818	64.6837858584477	-31.9709780175361	51.9925191777127	-96.4236986580028	43.4570857590667	-27.8605898072019	-111.075478971872	80.8674379542851	-70.1686427465032	-36.1032560702997	65.0184640881252	-50.5797943081032	-51.4096459663258	11.0318306657974	35.3742313829166	-19.9805960735138	-18.9612622118683	11.5701039018065	22.7170826513171	31.226092183922	-46.8595538532238	-17.5401092808745	74.3721590817389	-55.5072485233094	91.6833691959888	-85.0552940754795	13.3324635571852	67.1264628244594	88.1595178786025	87.2163986713586	13.6245913697945	36.0133874828219	13.9550649673811	-83.7507579021671	-42.9676628637393	39.7101229863522	-42.3493804615741	0.475765866708599	-15.2586103473037	-27.4967538645132	-50.6495605034091	158.03640819449	-49.2339827030517	30.2172575140756	5.59825494374452	-42.9029781095563	72.9544192201989	-58.0597945291406	-41.1038171673948	-82.1996415156517	73.2892887814867	-61.2289384875734	45.5948120266079	3.66261085861834	-21.1618563347812	-4.68209684771893	4.53087680144129	35.5664390808997	-2.7772022723793	-49.2815162171436	-124.041501533654	68.3605426003796	-7.43183009938259	-46.7659876916332	64.8487943579105	0.689167628831818
HG00114	90.713161111847	41.5199166210729	12.4438962188167	-47.7962788644261	-31.4264480675975	-4.32403982726297	-14.5944975211891	58.478658760417	-91.5034325223453	-10.1042179934091	79.2257961796666	-59.9099196321581	-60.1511303986736	-75.6150738328129	-130.652452198323	99.6829994170975	-58.5527736505994	1.69496466875525	-70.6028404967024	-27.9129100413997	-3.51262646342384	-25.075898269957	-30.3696997390078	-81.6959871759464	-75.6303410773247	91.844541977933	-115.639638515345	31.6887673908385	42.4215118079559	70.2523149645883	-102.279720525618	-18.5747726211384	-75.6875046756781	19.9084733230852	85.4343630295614	-124.867878742588	90.6377021638428	-93.2319351758355	36.2691744032338	64.8804242377376	-28.8508683246839	-22.0153854286641	-98.0788681007691	-106.434979731816	119.591455821811	-39.190611895164	12.5759836454687	36.0239502794744	80.5696651005751	-7.57447217803286	26.2661276010672	27.2158621727098	71.2471336399226	53.8900580104555	-3.27877247900248	-101.568803961934	67.5606439020171	9.30880915995148	63.2745353312713	-43.633375658123	10.0161608539499	33.052003102806	70.4668053321208	46.5505520345702	11.1297137829301	-44.9338723451742	-33.3457235056468	-48.513554838309	-39.3674165207387	107.678696915842	-33.7847025712126	-31.9955530804402	-51.381523029454	17.998056898722	-10.1357961964486	32.2795367984063	-43.827359544487	3.71385399994693	51.0324203933781	-49.2009336571033	35.6636149435825	-69.600166677343	-23.339358917617	-75.1160913163457	89.5224917336093	-35.6317525210795	73.1915070415684	-16.1568074036859	-26.5028462125036	-11.0355841534351	38.5588263832208	-13.097253761773	-9.87564079504472	-76.0260723749077	-131.122006877326	51.0292009424666	-29.4050566259457	-71.0897403137084	132.936597971075	43.687582666107
HG00115	116.400212363656	45.0950058304824	-35.7712003085499	-41.6990504556453	-23.4227912173209	7.18236375229645	18.9879444688121	59.7459794756295	-73.3661802190762	-35.4624604642426	78.14454318019	70.4396623716069	-86.2888795173032	-65.7516609338021	-124.385941229078	82.3650874851042	-52.8396296878517	42.3394547810998	-82.4537965261923	92.8024435628602	-39.9756907452784	-16.575987235001	-54.6613474153252	-61.7595973742548	-42.6154132762758	8.93880028989803	-56.4071856863093	45.5299176341759	92.4851982032964	53.0575269598152	-102.840287603782	25.8948401362865	-68.2090484254245	145.581860715041	92.4778518502749	-40.3852243663039	138.542101148669	-102.648124111012	32.4096117479998	-3.2388993619319	-50.9636513937348	16.078723339918	-102.947276182184	-23.0506076267048	69.5463355320401	-4.65690842776168	-0.94238603967964	-16.3891690371876	23.6187001880946	-46.4158226299353	-7.38013381667071	52.9181542267084	0.473216529920563	107.822348970931	-83.9141452760578	-0.51879854418975	92.1641198890698	-33.7037514741805	92.1453032009924	-62.089950068605	-12.7311852656629	99.103086819911	41.6799488470016	110.59868922067	-5.09773105826127	46.962128619574	-0.19705273966763	-66.7253290222957	-72.8746358906321	61.4106506638847	-53.6036392530313	77.1243327838603	-34.7342543208122	-33.2291014678323	-37.1887527813772	68.4752634449581	-45.211168535625	36.2866027398925	82.3060122979373	-97.1880623083987	-2.90955581276976	-56.1254802476534	-22.8269696732939	-28.5684766356182	-4.86876761305232	-60.4648266222457	79.0882403922149	-0.392310777290434	-59.1216329403357	-18.9323889334511	-0.315905344504455	-82.5519951914293	30.0064313348188	-93.2806919735917	-98.5891477563648	58.6477720338901	-40.0506537401989	-93.8367293243948	-51.0994971162254	32.1320855330125
HG00116	108.105019089338	30.2950802858866	-14.8812914054738	-103.668304762078	-81.0493836838741	14.9854831941026	-9.92043982324647	66.5616970217916	-98.4628187031402	-47.0698399338658	65.2882860050541	-111.846801392945	-79.5673188405879	-122.969061315281	-72.6396057955096	46.799602849447	-81.5016432586618	16.1325968847415	-90.5759139313465	35.286739266011	-37.5070937343087	-52.5143681761452	-37.5465055670553	-55.5579136224946	-38.823387649343	-10.8182014975529	-59.6590724124829	83.7870745321075	59.0087630877193	79.6054775611484	-93.4180379767831	-150.6846989149	-40.4755660018721	39.5095370929329	92.0080900333673	-93.5158840921584	77.4261590862295	-88.5704207152779	57.1252165938151	-26.2271663593974	-75.7052963348585	51.2764503621616	-77.2951261350194	10.5979163415815	82.5746496581287	-43.3732014633719	80.8885142568235	74.5201666841348	104.418171133472	-23.9402554611394	12.1189372056701	38.6955142387199	81.3655123541654	-31.8563586327763	-8.7568796571082	-25.2846212303571	82.5135720239215	-66.1861639619036	-9.77340893267441	-69.6879233452996	-29.0072795367268	59.8409290397296	73.6716318647005	92.0657812239537	116.135381377442	5.59892506754258	-36.1102512671031	-94.1257625379778	-69.2250644068621	78.203138551609	-31.8680322330743	65.2159001544126	-30.3216735202087	-92.5539423353322	-25.0048999106936	152.127589160946	-57.9110541905982	11.6919685274834	62.7112900667126	-40.6407229680869	12.609716230367	-53.5227368254075	-7.55584808773484	-50.6942859469607	87.1782166282656	-59.2979216474067	86.114721335603	-6.89082204293858	-31.3899192887551	-2.87515616479455	63.8838900707777	-145.333556033134	-8.26294205980864	-81.6791297413228	56.7519805191968	30.5969340189343	9.13118677906114	-117.372526211825	-6.0381794858056	19.3326506072937
HG00117	135.210836230713	26.4972955893997	-0.566033643389417	-72.187211922529	-55.1756893388583	-73.8840916778776	43.21111871442	58.5097790066738	-87.2464084852816	-55.6559986722941	101.085066534672	-85.2011464737306	-47.7962397026003	-101.216439663605	-132.064091452892	132.847567037467	-50.4832229202825	43.1406379006606	-60.3965514042599	67.7198487487421	-18.4188427160705	-13.2769244960945	-47.4408555429457	-67.457534068927	-80.7692992307863	31.2244489261312	-89.5812674457753	-10.3911502231633	-35.8162885733218	57.0508245208242	-43.6964098500154	-105.728831266909	-75.526938992922	51.0632892917876	107.136294683952	-102.625247396119	99.5577094321942	-103.208819377211	43.808246845685	-11.0282192302772	-107.041181658462	82.7363800236819	-105.804460738915	-16.1861174413112	111.166996784192	7.21823195749918	69.8568184229473	-36.5440989176203	34.0131348254894	-31.6425722037135	31.203309261175	98.7191520670156	-1.17405711158159	15.766616353054	-109.331286350966	-144.32914173396	86.6836228232407	-93.3166400257042	97.2371619555976	-40.6762986183369	-47.4103512221194	122.059128888543	67.8750493635809	113.000622018171	24.5734507548106	94.8957086001019	-0.197894690396136	-79.8094531473833	-75.1962800561643	1.52489893598505	-53.5039672963337	78.0914475355273	-49.5990429020517	21.1781079891032	-42.750270152581	78.2717163061459	-66.0646576404288	-55.2945923262601	112.961100795628	-123.924718048877	-3.57369053265712	-29.3608023499008	-22.3989904068748	-59.7663512678802	33.0575251827173	-48.1568441754097	52.1450214175374	5.87252411647518	-87.5025330574978	-20.5765490097298	44.0497579523197	-159.806188349393	-1.29034441188131	-51.4188796386534	-73.5611799700592	62.1519814068067	39.3607162015875	-37.2262135281414	-7.93317522750734	-2.13995426415203
HG00118	97.1198515917176	35.6810566543046	-14.63453132167	-76.7429135912862	-22.938426192272	-67.6379424800148	20.0694576283445	66.1857792433089	-78.5960912148575	-61.380513500861	82.2930105549124	-26.6306789392392	-88.2533441668236	-92.7015085190423	-85.3934397827592	88.3208064915632	-72.632225856816	50.0813526695371	-54.6326177674921	52.840984475356	6.41719568847136	-45.2725191221003	-61.7342179808764	-30.3860655545065	-52.7322034861292	90.8041428620006	-76.012459359224	104.303270965807	67.3799847516961	-72.5701607609625	-76.1683007834513	-50.6081201257469	-63.3357998325527	-26.9495581938578	65.1949523432787	-99.2930645822701	62.757188073078	-109.058819394011	88.8288009412123	-27.2906413292884	-49.462065854409	45.2844316038623	-115.61082690556	-89.9119147541207	72.1578814378498	-15.5336973714729	48.720608707612	-15.3847510257367	18.1903942257755	-65.3242319295547	21.7876475319626	73.6984845409029	34.4444800202528	108.999109243619	-9.43341013506546	-83.3603653720591	84.7351626833276	-35.609397071217	-1.59952779147142	-67.0902347067915	-35.5884518116497	79.523770017422	93.0061928474146	122.670582313041	49.4879119474926	-24.1751192947118	28.9378233110246	-83.2059280035375	-47.8950260797683	115.79824236551	-59.719763503325	24.9889503291041	-30.5628959800106	-28.8632236975213	-4.42308837383116	163.12437456245	-75.5781892801153	2.01973806766789	44.4384128070711	35.8643289207802	68.2149559764529	-26.8956849205972	-48.7625196073703	-54.4696960834006	13.1729332046537	-46.1744302560019	86.5121118901268	-14.4756385253624	-102.602229941398	0.810955437674736	56.4622700037966	-41.1667425061984	-61.7332318031934	-48.0572376927932	-38.3391088375244	42.0253279011602	-45.0832897575507	-68.49270304057	-11.6420691857031	27.4956382065556
HG00119	50.3206644062094	38.7995751212093	-94.0120277497862	12.2902919567285	-31.4959911243873	-1.76090418143538	33.3966231959702	71.7431240009121	-78.6254146874953	-22.0959221068093	76.5722339542339	-116.210734938807	-81.7109964552528	-160.981672203519	-118.33769930774	138.030776263304	-53.365763975783	49.6400884445873	-115.962462570436	96.2127381514819	23.6253339633607	-33.7563064522145	-11.9869021261275	-86.3696678794308	-45.8649622469299	35.5127904732079	-86.0340487933828	95.1810951988815	93.0205638984154	91.2694759440511	-83.7051232708741	-135.356671933002	-88.7670381578147	-19.7517162828723	15.9852643009975	-88.4883385202194	119.314976952963	-87.0528187736598	48.4451399865385	12.9581218283687	-43.8741460030039	52.0844405286065	-103.16510329617	-155.734192714113	30.3920696754606	-16.3336099804081	102.830239097623	-14.2849006025453	99.8038431319814	-39.0212270396513	-26.3915097812944	31.8115132686909	62.4915652069588	20.3324460688552	-44.5880893476651	-6.56077287783834	56.9867662878028	-59.5357972508766	42.1518464755509	-42.7145174157296	58.4194441082763	45.7338114618703	32.9201409351745	26.8452412839979	-0.58708775037665	-9.36524641657305	-15.133879771571	-104.80375559871	-64.0727986201476	21.1033328576101	-38.1639995627798	33.6259225563882	-33.1206432441874	-13.2821034928479	-70.0798831639651	79.6925784508656	-56.3270826236836	22.3328403247358	76.9229097090013	-53.5515545783297	22.3294341386459	-79.9992187396298	-33.9573636266584	-46.1864617394138	101.415767897676	-60.1403847805466	72.6518889524115	-10.5121196425395	-59.4407388377712	-22.5630364580308	-52.1736732790703	-83.2165720525708	-69.6887064248283	-49.8935456541043	-9.65539344197536	73.7372372117727	-41.7234397056014	-67.0046103414035	12.3621659676462	41.6482311783807
HG00120	21.6183179542881	13.7147900937732	-2.86986246854817	19.9503423595228	-0.977356379015689	62.7742487369909	-30.2801898409789	56.1947190401539	-104.601274353394	-60.8303034985788	60.0414044936962	-40.6324563672899	-107.769310687859	-130.784687441112	-85.2107707452693	125.769802331117	-78.9565656161672	37.8961995412936	-40.842470226154	126.660836874073	-19.0655810062343	-19.0986417777436	-21.3501833697708	-61.0078519129836	-63.0330215034294	3.94991109773737	-92.0784778097433	63.6380267789922	-12.1824059302401	39.8607131880591	-82.4703177391899	-59.3651323897505	-70.4367021574793	7.80685633736754	56.5354493955476	-119.887316079191	82.3656967684552	-96.4289549627318	78.8157218946973	-9.48665189294713	-81.0534992131028	36.7820649067863	-67.6025483392557	-6.47880016329581	79.7513404234078	-71.2574470695994	66.3086890246335	27.085544063697	99.8411547268029	-17.9900905755392	-4.61339245232499	48.7960886842872	35.4794240500144	22.2382288816621	-58.6135017229718	22.4330844525495	82.9633070474132	-72.9993603289338	12.4703827739393	-64.3517621015965	-28.3420119058402	75.8770409481837	12.4807078906802	113.091109350919	38.6417326975924	11.4271895511049	-29.7948505367697	-63.0215607551002	-64.2690105285743	93.366074996273	-34.38881464627	-0.926234041531757	-10.7822889551602	-15.5585732471431	-16.0356109425876	133.356244482452	-51.3834701772214	64.3005598579412	21.336569355956	-87.5764569988399	71.2540286370471	-85.6263921005204	-37.2357190591672	-78.0517079050043	36.8399698310541	-58.1512030783882	70.3035459956924	15.1327726287772	-60.3178775882695	-2.7985177714317	-14.4568840325104	-10.9545683909483	5.92864081262895	-59.7317599691275	-24.976006702395	63.1782288796091	-17.1922097022327	-50.3147746152288	34.6457897808058	3.75462169249898
HG00121	142.745582244438	48.0758464959252	-35.3173193468229	-32.1012914587707	-3.27607298682887	8.40743758890745	30.2180086104118	72.9047146175172	-71.3271027681841	-34.2093526447057	56.2824584196392	25.6981392871582	-91.1754277173177	-66.1994987755348	-72.6824700545781	161.001353787654	-55.9404953177224	21.973233580794	-112.897926931334	23.1804462762897	48.1400172027556	-65.6200257847113	-36.7478391881711	-69.0864338820664	-49.7446135852394	28.3977441702803	-93.9548893205538	20.2068940777195	1.64279672873668	25.2474556050032	-89.3153339337804	-91.4455617487846	-37.7576557325452	7.53531702639501	82.8448120038519	-198.32927669901	91.8897263907745	-87.8641621350894	71.7967697036977	28.2876182281465	-82.0208212928581	42.9561071337866	-77.1079458384261	-63.5147579991232	57.7329437430179	-55.5270723525867	128.952866327222	26.5913424297069	40.0710109675552	-34.3786751728398	-14.2785019813157	54.5695030862722	35.6074588246959	54.8083793049447	-54.5913688202248	-55.0960268562721	69.6993470102252	-92.205361074516	67.5990908312224	-52.6742976261998	7.72078352928418	50.0604354703938	27.8370693402726	53.0422045067021	63.8768392513864	-43.5994540254551	3.71186206435776	-21.4973835670014	-40.3376020447002	35.3858858616398	-29.2499409498972	59.3312620584254	-34.7963391183569	22.5654243335984	-59.1991423804835	150.28273728079	-63.0884533704844	-33.8122825887676	-14.7528379564883	-25.6186128125821	-10.7041175259062	-64.1190497532776	-22.1318113024047	-84.8441966657058	61.9073678641103	-50.6527696101828	84.2886687366083	0.604155369728838	-56.8576035971083	-2.39754098328256	-41.9026746975813	-108.459136514414	-83.7699523260326	-79.9056237721382	-8.33047747788921	68.5465391899539	-17.5206645875647	-100.27018732586	119.952519676168	54.5077643612961
HG00122	20.7558487659709	35.4861992120915	-26.826471382981	28.5205659212844	-59.7435316733237	-7.25136473489219	11.9106421870544	61.8022128149046	-99.1178405902566	-27.0052119397303	77.9058426808076	19.1920722713565	-92.4945046965748	-61.6281325122062	-120.206477148157	38.776991261117	-65.7336595722516	42.4053217194657	-96.5316539812254	21.8653727239525	-64.1973920952271	11.397213516587	-13.3605650991336	-30.7884624584146	-24.0386085274777	9.34047887428341	-92.0776208481148	103.211054989721	-72.502704312534	9.39201673339915	-77.6204144449296	-50.0961359958946	-84.6850113458997	-12.5046853083454	73.4930649578686	1.74229853988865	97.2459719055426	-100.594854750682	53.6650558498707	-19.2601914147052	-45.1178681435328	59.0379872737546	-78.1727018239542	-49.9820827113521	67.3685310460465	-94.909079102516	12.5197275133883	-18.1869054883749	13.835723195769	-7.37893394685803	-6.9380534094169	46.5065673273596	29.5295604380256	14.0033148828596	-43.3698516469739	-43.3678511995826	94.813543972242	-36.3227818321874	52.2975396387629	-54.0656953261648	-28.1318813434246	82.7768927830753	71.8070301689409	101.229762652988	83.059215719373	-15.0667742014516	24.2746296101652	-34.8857219825393	-49.9700378497018	50.2194443754972	-27.8632668306846	41.950274151685	-50.7219479748825	-44.5692590919397	38.9642694613709	65.2299413561274	-34.0369112257467	2.11088601562668	35.7916540173736	-95.6574149057892	26.557638411566	-54.9656161304389	-28.2696518284273	-64.770121364338	67.558544285853	-34.2732405920451	91.1585775614119	-8.93250431080751	-37.7554044378611	-22.7023164528594	10.9353540865587	-53.6023591353266	-48.8646149170416	-66.4401943343312	-0.32334662414776	70.3423046509808	-23.1272859887793	-78.1202428670359	-42.9878018127262	17.5448486714961
HG00123	65.8842030788432	50.338202935407	-49.7567910654088	-4.98919670168748	24.4239866103751	-7.90334728362136	-18.0344101591756	54.5221108138451	-93.1633994250199	-61.3461853467868	65.6201871427326	-52.1402684269465	-62.4061368334247	-80.5885426384175	-82.7788291629646	78.383575037134	-70.934436777064	46.455302824956	-92.6607623110888	3.94775235929608	1.09920769075421	-18.0793739425677	-40.9979409372099	-173.901665594848	-79.4410813157	-75.4358288896582	-61.3850709461631	168.896666065405	30.3976491592795	90.5489692721098	-54.4841594437007	-52.5036985126603	-41.865473364474	31.4689524912792	67.1837377158638	-89.1561121937277	101.822880954721	-114.110762340645	42.2071583641698	25.0507782981475	-126.354573428264	48.7187349334307	-81.4296740978914	4.51004359111531	56.3887241451395	-29.0751617724653	64.7926847718603	-61.767061189683	32.830456374889	10.7797990227314	-25.992357610462	72.5770237016141	22.979466077618	70.1043527953546	-17.8974691501716	-56.3731473522967	66.7605954697909	-43.3529153708238	74.2874219619643	-81.4353325719753	35.1864045883	87.6457938446892	73.7752828028117	99.217223684037	-3.77841069729121	-2.96974962886972	-58.8041017545935	-71.0574341005207	-53.267314780351	54.290262229871	-42.9958224239991	127.833364862742	-20.233168120407	-48.7258023071698	-5.91149724922847	110.542230554166	-87.7210402270318	12.9676267904367	91.7902493627038	-48.4527854105651	44.6760490077471	-41.6485724254791	-36.3814206760276	-82.9800184109591	-43.3788491011902	-66.8690825184524	69.3795573386027	-13.8273869587349	-56.5540221375897	1.84413256742974	-58.5139122712305	-84.9330992305845	-56.4240149703197	-68.8789056308987	-25.4621759608303	84.2445075053911	-28.761603446631	-5.58480941252333	38.2301522783126	40.4893102020199
HG00125	24.0625604120886	34.5780086122488	-23.0819787250032	23.5090008104591	-20.8859247902771	-3.01485667534948	-15.3682303792341	67.7563078440762	-50.3452270443663	-42.3754997051902	59.9462131721313	-45.302678248259	-76.8081389148321	-107.280805538207	-73.8504895291873	83.5643584301642	-71.7345946143568	39.7115452242889	-132.178472861857	57.2598234203068	41.0957715940516	-46.0614830450742	-11.5242777705617	-36.4900728375523	-2.66089845537817	106.861093353948	-62.4203668824417	91.5740473238081	0.776486013587871	68.1761185586146	-71.0246527734247	-19.6474203679619	-106.10241738482	43.2323602990968	40.4597407203948	-114.370115542768	78.1182311447763	-102.625292207708	67.0018252703164	-14.0170121687461	-16.2993424297244	14.5492023730181	-102.642307049148	-57.4759739081468	106.602016487202	55.0417538900883	27.1247495392032	-2.49306698305044	40.7745306406924	11.5093861793944	-67.0533826474916	44.5953030091654	60.7533619807981	50.1509388948227	-97.6265435642198	-86.997802951168	82.5243173333247	-93.9629615657362	32.4810939988374	-42.7254492127008	-41.6890135847288	82.102724384577	69.7579070544311	-45.4611524487617	33.9304615369305	-52.4079812959834	-55.8705808982306	-23.5719764592855	-52.7342993386617	143.010451615263	-49.1816149802284	15.710451440064	-43.2554082007959	-73.7233656360606	52.5418430554954	-30.4588649304933	-42.6671621287927	58.0597578164748	89.1062921884589	-47.2746287327615	105.896673045057	-68.2168802177375	-47.0412419657947	-51.8899829713206	60.1945534371941	-43.8327618577272	55.5178063745993	-0.269625051940662	-33.9602017716561	-3.20930471576042	6.4667774500076	-0.500933242214906	-19.4617561524184	-50.6194751186913	-42.6138185116354	37.4346964085934	5.28464236119291	-95.2748864650721	23.767803113861	18.1187585057015
HG00126	36.2003760734679	35.8151504058319	-24.2248230438803	-35.7823804590711	17.7533092063977	-32.143030397955	-21.3547900101068	59.4164558409431	-62.8256028605145	-60.2636858878039	63.5826222202185	-14.2951121062451	-99.7269053082333	-74.1248887079791	-94.6254948623826	41.2861191012273	-63.9104995371032	49.8581117522345	-98.1726276013654	80.6635773184953	-13.9473846421257	14.6821657962718	-29.3378150491882	-94.3724756856826	-66.2662813009229	-16.9586348290926	-57.3665784740291	124.146117893987	-11.573004205334	20.3840820513592	-87.7431795887811	-7.33640773610245	-72.0185215601292	-21.1429624030875	35.6705879639469	-114.391651818773	108.559817313124	-106.630565535423	83.5590364012905	11.8973250718698	-12.2881131796344	-53.5940475794321	-34.275635912299	-106.430755616691	32.4152540939409	-40.8534520815456	4.18975036575782	-28.9733103498354	13.9376950310707	-23.3295625928252	-18.2238956578308	30.6525196853972	58.9900270940957	34.9082690436215	-11.343843937667	-132.369540503646	83.7737849375162	-102.549120810452	65.1929348626402	-70.029510041383	-35.1264910198685	20.3645793406884	54.6142866519929	56.8693078244529	98.4630915078282	101.139538485072	58.1264269643399	-59.8700552446147	-61.5097289053818	75.8965068709727	-43.2626882720218	42.7705728115198	-15.9574640128252	-20.2491111603359	-9.29043961885166	39.4763715023834	-77.4327443266294	75.6224903995463	95.6871970051651	-69.0096086540454	-28.131989211595	-59.7236207924191	-22.6831300308413	-37.4913480502354	29.5213589773831	-43.4775251780131	74.0500831453085	-11.1477548319294	-47.4820981193778	-7.65020851027648	33.2498108050968	-82.7467418038162	27.3255656052809	-44.9463693469907	14.0281145914426	64.2497594138219	26.5640602024769	-33.809122259148	37.3666593509238	-8.77741539987113
HG00127	110.921876883445	48.4925464674537	-45.1275546751033	80.7436341434484	-78.4888122645585	-23.0542991880241	-26.9311880462943	68.2341413840791	-76.0539562281263	-44.0017004503999	72.6859516010206	-15.0300551716029	-63.8205506718692	-135.642272501542	-137.407471864661	114.83628703117	-60.3069131633392	25.9951617968537	-70.4022686172688	21.8297605848469	26.2027812301769	6.48349319265025	-33.216845422624	24.7823961937122	-68.0985922600097	-22.0718275860064	-105.077549147871	60.9178962087	39.5062728115235	28.0862591859063	-102.008035625537	-62.1464861873949	-47.5072732235429	8.7203650151408	56.7691052998121	-175.955945101932	67.36161690701	-77.8429578281384	63.0528817768853	-39.4959747654916	-14.1303036157246	79.0213871774633	-86.3564833119917	-90.7875779670031	33.253281482966	-6.5038308387128	60.191040551661	33.0472846781972	18.1525007496649	-27.6003099480435	-22.0020698355507	62.8217795269634	60.2899119163438	126.619295026203	-54.1582213407145	-122.380382092504	96.4260890822655	-29.1204687388582	58.5014850148335	-68.5919342574779	-49.5304674855952	69.7947775756752	82.9919357079111	76.5485750024851	-56.568656507277	-48.6338058143073	-41.7833215264068	-47.6450582659833	-58.4760551457863	139.096125334351	-45.5197022961643	62.6783487340247	-22.4550619813128	-47.7290885742962	-50.3940223329585	47.4944833246102	-60.2864578925434	22.1556306488498	105.139847871565	-43.3907068214786	27.4435784770705	-46.5425764397575	-47.817327840386	-63.7336703498328	98.4587047330356	-72.4051136994331	70.4009240843382	-4.59305882246127	-53.4228645050402	-23.4616259532641	-14.4860702875792	-46.6181407225754	35.5456508934821	-66.1488486586651	-45.7340500011572	63.1216680703238	-30.7415168604508	-57.8144110329581	0.547750967336249	-21.3737729397996
HG00128	113.329961797805	68.8134785203369	-19.938021109058	-28.059805008257	-46.1396280922559	-51.290225272436	-18.8307977837152	55.9485119144706	-111.689344651296	-24.4820850094741	84.7930815066233	-18.099079732816	-107.909288734308	-56.8762768409557	-80.9566310106666	84.0915004550306	-45.9149530974074	17.0649102969007	-150.891777226857	57.6652014945933	35.5127148832636	-28.7076048218407	-37.9487665877366	-98.3826056812255	-58.2509137023944	-13.1395446824934	-98.4157132392159	66.0088460642223	3.87837248737458	7.60921962196066	-22.650736696187	-47.7682659634203	-106.115512345132	51.6276922563962	83.7580363423648	-94.1362628289518	97.6328693331907	-98.2156555542227	58.6918836761245	6.60781054531904	-89.0450319279917	-6.14363118391172	-72.6313219896472	-49.23375914964	48.5972500008862	13.892160823789	18.4023956343129	24.2700363653154	78.6179345243652	-26.7168106757027	13.1750712514905	61.8192208473278	45.5115926891246	19.8349196311919	-52.3351062465505	-69.188756380121	91.2477486728931	-90.1712447300815	58.6080080667673	-59.8124800585802	-18.5069359794873	44.5496530928927	43.9030989523712	49.987371686783	5.70026647469131	-1.44269813866374	-6.95119518298265	-61.2149613967395	-65.1278485846344	76.1137578387075	-57.670055710107	100.054076413112	-21.9146564618124	33.2089459627096	-27.5240135979957	51.4859270223044	-61.2272192538418	-11.1508835159734	7.92477443151523	-37.2490661390077	54.3747275132273	-30.7305186077622	-42.01902644188	-68.2121988006658	-9.80489205940062	-46.9689676015097	92.6961047300123	-14.1014907954852	-55.2581929623878	2.99167768351525	-53.560928510505	-84.3134194502224	26.4214460755446	-44.0406757352718	-121.547883547951	94.8399064485097	-60.9128432075894	-19.8698112759405	43.1165921596317	23.7640122048059
HG00129	110.001017764084	39.3164670203459	-64.4861545056148	86.0954757883728	4.82139709474272	13.2408852235513	1.39203527880016	52.2833736866973	-71.6621644621138	-45.8329277281317	51.9762775218473	-60.2613635648206	-94.3964288412714	-164.532315229211	-114.245232923165	95.9540710106949	-31.9807821074164	24.7315840323667	-103.716723480236	74.4369213540375	-52.0908540357282	-8.84280615594863	-43.6641300658234	-28.2926888988264	-79.7401619937587	49.962591834888	-88.3914470568999	97.042916763675	17.7623465785003	50.3891538189864	-46.6428861563757	-8.19481015075956	-74.1705995478917	8.18770879680024	38.3484871723397	-102.345908688163	92.3836581222182	-75.8664192174609	21.9275646740989	27.5890124591855	-85.6113165768001	5.69366165151641	-84.8436443052451	-74.7844258909508	59.3431057416709	-25.6958923411487	98.1007710940128	85.6913757368174	65.3119541025399	-4.75736307611334	74.7011268810253	76.4487153602476	23.9002854566539	48.3582040501109	-85.3037295443375	-132.73849787642	86.049831659507	-94.6410894844807	41.9306619582705	-65.0933293514607	46.5881905177341	126.957856161135	52.2081816394769	30.7163322400646	-45.8722660511795	-38.1579227299175	-34.9728640213546	-51.665840929295	-66.0516008397139	84.4619504259243	-35.7868391670788	70.6507025983761	-22.4817746066663	-70.724458361329	-26.8109642640468	78.6581395391787	-33.5796948308751	-9.12259688751484	172.493058227833	-145.648189157909	-14.0840590608631	-51.1903017694978	-59.3324057064837	-71.3666770839281	101.848862671626	-57.9599578871117	78.1761392524422	-11.9483222505439	-60.9954536707297	4.10513623252473	-28.3917217962656	-20.225946563861	8.66752856519075	-60.5155434982102	-100.422562498828	79.8921313384765	66.314413335326	-45.3460726920892	22.7781470814718	-6.33499689515229
HG00130	114.104617295271	33.7996984464524	-68.7840804564719	-64.0097823379074	-32.7264990150032	-9.04417894245001	32.7544242280256	77.1406011729453	-75.0923023452446	-60.4457685491831	117.906063475817	5.67398998429947	-85.1328182944347	-101.357383423788	-91.7975434368394	107.559932476141	-102.526733414833	26.1649669968569	-96.8694601113702	52.8384880527719	-11.2773872460599	46.1959953091843	-50.782083488987	-76.3519140641001	-91.1336387062172	9.9404343326778	-93.5389686370746	92.3235860782194	25.1609523188813	1.15426289240127	-47.5521535979256	-102.522969103643	-19.5542579418392	32.0854014524419	53.8195697864383	-96.7250224911503	118.236549351943	-66.908104813231	56.8771529350779	-10.6261030936576	-59.1404388270798	27.9991276501334	-60.2649727670988	-14.2229376097296	65.4134213225987	31.2989087697958	83.3893053484696	53.3548647258982	75.5875829925696	-10.9126136905216	49.0974806218756	23.5571369816253	85.9884382170103	56.2764332521321	-36.0109560761587	-46.8503596259449	76.1437299732801	-60.5832401885865	58.573817052142	-73.7573185573572	-65.2547324552421	34.2691938702208	104.672350939428	7.02392882503396	-12.3617350073339	26.9295727216141	-19.2160305823363	-58.1551101780263	-47.3409253570259	76.6091845575762	-70.6434234989636	34.4253009187434	-42.2403974268263	-42.499561676396	-19.0891096627723	81.2896411539862	-111.125148596973	14.6744342032625	66.794057492136	-41.3292541735856	62.8060343846144	-72.6789753476764	-32.2486451669807	-59.3729759238021	-9.76700803580891	-52.538943591989	86.7532168617477	-3.98803052127629	-44.2482530355946	6.28735896838318	-11.6048044728234	-10.9614660892252	6.52321232891813	-72.3413710659108	-15.3493226183245	41.9959969190856	48.5833332575603	-26.4677066868277	-31.311749234578	22.8727677061705
HG00131	70.1443335661388	55.5259601458144	-6.69999195079313	41.7349344513889	-38.7230227034789	-13.7421280124533	63.1133410451013	52.9787694684865	-78.9055462427586	-35.7467804442795	52.2840224269442	-74.9638880477965	-97.9456568163205	-48.9045622947183	-87.1265678901851	144.598992147072	-66.4182079520456	32.9052050591935	-86.4865841336293	-1.48683271212769	10.8144254702294	-35.2873284032705	-30.2579769472708	-6.41095698890922	-82.3723930736691	-19.5313922536009	-80.030654281516	38.8178573071063	54.8324238148388	39.6654083445142	-99.5848474712532	-148.243707690384	-104.223904436481	1.41228485183122	19.7152476951086	-76.2003329454215	96.6546276638484	-85.0276157100194	52.3353313415009	-8.0775095690072	-35.4182737324304	86.8392455639603	-95.8811357667886	-62.101017595183	102.727345059355	1.00796392973073	14.4428902854984	-21.9456662312871	56.2315302168902	-1.21323684188974	22.7202955251843	19.6009418643868	59.6180034808473	81.9041481546305	-35.4750676260183	-115.659756507003	102.996076054056	-101.692795258202	61.057854361333	-48.1083538333575	53.5730980637775	6.53149799147523	5.24998266793057	140.028735944233	-17.2795290008216	-56.5333307564793	-29.3387898149621	-47.8914989800483	-53.1495869235359	3.60046400063122	-58.4974554363331	50.5909651761368	-54.827080981251	-12.955395452754	7.35633542114692	129.815874263056	-51.8188540522832	42.9190263455118	96.3866498362757	-105.681424976999	54.081052893055	-44.3035068432462	-36.3424154365821	-47.7391505836656	-29.6588176796077	-47.3691780183866	61.2023256029324	-5.98326310132176	-51.2016460014072	-21.8081378529711	-43.7210874851051	-37.7498696484281	100.01667409713	-57.4647258741598	-99.540631981928	39.3736347467427	-62.9122468182358	-21.1590810105951	-89.6244080229086	20.5099416097788
HG00132	109.136283367117	26.3431242632013	4.23360646779963	1.79501349631683	-15.0404043903549	-47.8325593249298	14.6935623004125	74.0970134849764	-137.28458518986	-58.0295037936807	84.7045818425713	-17.4663582956873	-100.711699736538	-117.243241166856	-70.0778654139704	102.910632599861	-53.371714863708	30.4001212475778	-35.3906398985743	34.3919097713222	35.6304891606054	-34.4484621869186	-30.1663626705974	-83.6649003082465	-68.9959641710077	-15.9916582802211	-102.374866862442	45.906426097853	24.7447848052485	84.1551408208143	-67.0767734343793	-63.1681280560592	-59.8487633590024	66.6525075811182	33.2807728988913	-53.7413427527431	112.99612340668	-99.1212196295116	57.7715357951701	36.0113091326869	-111.420843947865	40.3339134964494	-101.284875370842	-82.5160247730175	71.0623401231275	-56.9877272015501	54.8209621488887	-41.7981594435655	43.2107368026023	-31.7689272868363	-6.96588229744656	59.0153391199834	53.899571658676	47.2349761906331	-40.7196466237331	-80.2231696905629	67.8192714305996	-57.2192882603889	90.9411532001458	-73.4569519465233	89.7654979163146	40.7736505556792	87.5926314086693	56.7126004823899	34.2401972562952	26.7930132482562	-63.4294715598889	-29.88521823549	-63.779992977661	107.680567041975	-57.2237323811198	63.4214111357609	-23.4737860287829	-8.66365169670977	-23.263426729001	123.891237923648	-61.1251551571003	22.3892299367888	55.7262356057924	-77.0611662887863	-51.9302307747573	-65.3221378195123	-56.2885011654963	-30.4553883784219	59.903553822116	-49.5913307779565	94.1221188457209	-4.9165010491476	-54.0911919501102	-0.222826426287678	-11.3150819284367	-67.6624163292739	-8.61869373780742	-42.7937764795161	-44.1847144544304	51.7519174107857	85.2170730909165	-58.642066367262	82.5403514788447	24.0655788915217
HG00133	133.328456630796	37.6918236143266	10.8831608627901	-84.5044051515882	-16.0272091101581	-1.7342913657336	21.6681795023045	68.6357904139995	-98.9991999376307	-43.3981983596988	62.1098568975113	-93.8071057367617	-69.6976733869789	-30.2929551520615	-95.6011888279561	104.446901064499	-80.9935983994625	39.1883821546943	-93.0043253772695	7.46289692797163	28.6298976840868	-27.7148787245952	-47.0284304007429	-61.0323852161108	-90.9382621931966	38.7682676127565	-66.2339916948942	77.3420257560946	10.8297183968526	126.558809318216	-81.237899944154	23.2446850940569	-72.0396494456626	4.06005486417498	27.6366007827866	-41.2377833612341	104.205109492129	-118.892598552406	28.6647264655347	8.33497241044656	-54.7108477376596	47.0437785794626	-93.2336819457992	-15.5802566064177	97.3318609265816	-1.6201660980338	36.6442140015764	11.4097262608392	34.1012224046073	-30.6433509604828	-2.08036543726051	89.0523179904995	26.8951971299782	0.949883925995145	63.4019407037433	-102.088893692387	78.9004004083352	-15.3242221850973	2.87853826017729	-64.4320132345258	17.1567441787608	37.2957620965407	94.8072985392556	103.546671713886	-46.0209178435563	-4.26084630697491	-6.10761214913282	-67.7499356394525	-77.2276753799676	111.606055454761	-38.8107306946795	23.3207938570958	-23.0597325736675	0.0828401624314754	23.0697521366924	50.1520025643372	-95.7066646798831	41.8907569797256	12.2768589519996	-61.9904696392846	20.4734016004907	-67.6998333307203	-35.1786889352908	-36.1729759190416	45.5005138964522	-59.0164528110696	71.3172972098257	19.7764361374886	-33.4509033896066	16.2360463803002	44.086927288722	28.9223990267226	-56.882141138655	-28.3064379489894	16.8731697921077	44.4990857427537	3.593619259257	-42.4203722003604	-21.6985882667786	30.7467625686881
HG00136	107.917405401167	40.7234429938307	-37.1686398291376	-27.0846246722719	5.01650723174903	-73.1334197069097	48.4609605588368	57.4695338315242	-84.702932808055	-41.6921155961141	56.3900067173758	-25.5230383512075	-84.1257517895843	-48.1544099524619	-87.8579224580015	123.606638418535	-69.2799312584726	33.2371471453043	-134.630577240823	117.135782077227	-38.8948167060638	-6.01530640878281	-13.6782543764269	-102.78144658652	-62.4076915327371	76.7962194232352	-104.668972868131	110.392933041636	86.108403975074	123.78542796614	-75.8248236182784	51.9458214725276	-101.277363726488	27.6952641699669	69.3880402899467	-115.024855122811	3.81707713180627	-105.898096803391	35.8992956341397	11.9016425170467	-60.1540471430514	75.9389361481078	-58.1005828186221	-109.287399054635	73.5494832891491	-22.4448881151645	59.4312493137246	30.5249991497761	48.5867154531179	-0.176943128531299	-31.4861201024045	112.542697195184	69.4480369679499	86.0880886486374	-84.602433599289	-97.1449074371854	81.9084225178024	-58.318456198969	50.8523423131708	-57.6165193778467	78.3637093043573	84.5563598258408	52.1977613705851	40.8122818378667	34.4418752125722	2.75765252557915	-63.7485975383552	-63.005783120632	-64.3451507365753	107.092228706942	-65.1915045548664	84.4843502902068	-27.1596812351871	-9.7083864196767	-69.3656503779813	105.656229847069	-83.8385477251605	23.4745855299983	69.7777203185452	-95.4652023790832	1.51588148358807	-56.6784711358434	-21.0828993498805	-69.9214635414254	78.8376449056367	-55.2176391795016	78.2593878804701	-12.0122624794781	-17.5254326549203	0.554517615621835	7.21312403702183	16.8399530557302	55.3053973045357	-43.2134860822591	-83.1932780914009	51.8581407573924	-42.7608404406395	-63.2458485745774	52.0669527057345	33.0720398330982
HG00137	120.136221110568	16.5481673308	-116.601181840866	2.44184496670262	0.478766429424319	-38.8386982992725	66.0283210466482	54.177050517901	-112.673631441625	-41.0822054690999	56.3673752521231	-42.0397599726006	-55.665717689632	-44.3846796658882	-87.7893534609628	135.075320974158	-45.7126834359203	54.621038864969	-137.80100274918	69.7476755055019	25.3640096916485	24.8525336659797	-61.9926861764399	-91.3306070342867	-70.8671299209639	-42.8054802424403	-86.8519791840997	87.2647258953163	98.5180800618228	11.1337471712926	-21.409753314975	-93.695723813262	-110.199895317433	34.7270090152794	52.1685869518962	-104.130537969328	62.5567743739898	-74.7430550526154	54.1497172349576	36.508125611009	-68.1783589507032	-68.3230133395356	-87.0311421172896	-92.9347541182939	59.2142526470382	-40.4379631325975	-16.954888104059	39.1676503538911	-20.4041459901061	-28.0869762654469	12.4929579809215	35.4190959081744	43.6292365391336	116.987861641475	-104.618831060474	-123.511913059626	100.176340940134	-56.8793757777902	39.5933533744543	-69.0488500050175	-86.1920837143813	24.4797930940215	80.3063470870424	-12.4627846458271	-23.465169138464	-28.1077623981906	30.6482695642166	-38.9009739130396	-50.2245681380907	80.7535829801555	-56.1185975748573	30.5190207022591	-29.178321308279	-50.8195222199173	3.52987944588885	64.1491730950189	-44.2381608465174	-18.5675971291612	54.1280811168869	-80.9371557813761	85.3014404290149	-30.5453646989757	-21.2678189966046	-81.8570548664096	-7.10177336495342	-69.8101681632247	82.9397869484986	-16.8862947446718	-38.4927155761459	-10.6609853728736	84.9096002560902	-109.248042426249	58.1050780939431	-52.6872170803308	-91.1082218186592	57.1668075319492	1.39681927056523	-57.958680634145	-40.1278417045162	8.36767224557709
HG00138	72.7542566119988	48.0194542092007	-31.9815060036193	66.9527023942555	20.0092937414896	30.082371590957	-3.38452224158482	60.2417416853873	-50.1881025566306	-40.0590435328999	75.0810774533975	43.7903800061284	-52.3120337703091	-102.135456697997	-114.067101464225	106.697549736406	-67.584768550645	26.2589423174366	-109.683336556958	55.5979095298313	64.9848853286006	-18.7526884722273	-32.491672119135	-72.2945331884855	-61.0623637090102	-59.000907567527	-100.149186033503	32.198683312276	45.6370673626717	104.736354112871	-28.894766840782	-117.803908214579	-73.8916591826942	-20.0911203894487	125.083405130285	-96.9947206733632	54.6201026287576	-119.600112734455	51.9568117079229	-14.7236715567788	-91.816737496438	59.0254828728049	-109.05090617539	-35.2930914562729	37.1836050401429	-90.4564243573253	101.298870077493	-2.31632839010074	-18.2094439196573	-21.3942498516973	27.6729637673327	32.8147283372575	49.8037038173126	12.1231539480544	-43.0106992743594	-86.9537895404494	72.7302228246	-114.623498044729	57.9105951760289	-69.1444080937881	-22.4240049518339	117.768116596679	51.948884933054	116.377769556587	-4.99846336022361	-26.8258747763289	-0.545387690954097	-83.8135183109599	-61.4240300105219	71.2801256698891	-12.1121521758515	32.0492969662858	-38.416323349517	-69.9692438545797	-39.8513931309208	142.57070025575	-110.810686519206	-52.4347415021671	118.24695125904	-65.4368291838996	11.2719795601736	-75.1444298132348	-20.8287030846879	-64.6358014668524	107.866186211541	-54.3362925419673	41.3176616453256	-0.609383984023363	-47.2546519223178	-8.40431329166464	-40.3468431633949	-3.02468680998804	5.6653195034703	-56.1829752289466	-144.922079859754	65.3430523724054	8.88921109292249	-68.1065313724484	61.7679630190246	17.0481942801976
HG00139	70.4459384094567	30.8360167593123	-8.4412498023651	-58.6906909599253	6.58649621228529	-77.8381776831406	-46.0782852013649	59.7591549772472	-59.1727350448313	-37.7072062461492	94.4105375472967	-119.3095685166	-101.813124059518	-102.170642032972	-110.727017301064	122.684886959927	-60.4999929590657	73.434441152307	-165.229961730076	-5.5921492970817	4.0382067539199	-46.8891642911507	-45.7149198140101	-19.993906023489	-92.3896578959943	55.4724360824527	-119.268922460748	9.15725267922622	83.3894461416848	14.9692860910033	-84.6708586427967	-39.0605933852705	-83.6780674629582	54.611726123201	21.6269296635871	-96.7354414599877	78.1177492619554	-100.151551711956	16.1501140100778	25.8602444134923	-38.7352532511438	91.3910606047164	-102.753076264404	-47.1453826000958	99.3599971489573	-18.3057431497789	68.5424513771044	-12.4089946382226	54.6217296614341	-3.54920174104766	-19.0829884414091	55.6369424048993	-5.59132529464461	82.9006225784477	12.1731526889823	-112.912384730316	95.4323972647578	-68.5923967155647	78.8283414896249	-62.0827497259396	76.4545417040685	89.5258773475076	67.712156048171	85.4083152021533	-30.860397051678	-5.56367417621591	18.3519943891816	-42.8795819698131	-56.7309909756108	136.906269744177	-55.2815650114423	-20.8445223307935	-24.3272647245726	-37.1071998728597	-5.43725719561184	119.22806049206	-63.1037297511364	-24.4763242288207	-0.413301017498412	-80.7909510582656	26.6315024161149	-70.793354799437	-30.108132236133	-52.4340409239071	15.8776688507463	-64.4049992576336	44.8697865096104	-3.74304394378534	-56.9373245812857	-1.10289285669228	20.5685683963063	-51.0027586478081	-6.74014096792575	-55.7352209853282	-39.3724184108786	55.287608240848	80.6386660524668	-92.6819307736714	-67.7685859166311	32.1622794956879
HG00141	82.3185390450406	44.4017627093771	-33.9631296802214	-8.95864288762583	-68.7099944558335	-66.5269773032321	-58.7353900994494	64.0711223495022	-102.746722184733	-27.9128956910978	43.8321018150185	-60.0494949833436	-66.0357037023297	-51.2861624529591	-110.68106225959	99.4006353374945	-51.2664209133471	8.64070612590913	-75.4992253343943	119.003043225476	68.5033848667625	65.1855245226543	-59.6696697836945	-137.68401525735	-78.1233838698061	40.313815616766	-87.2057807254228	-12.0774240112439	58.2286731237533	145.227784410991	-73.702588130772	-23.6007989775047	-74.4229623595332	45.2506373313419	104.695906374736	-98.6636779504453	129.022461783303	-100.704699159903	24.3241438018785	-32.8699302968272	-44.8505443574351	43.9974938168265	-95.7108826975592	-32.6013345609729	87.4225040441254	-18.8760360083079	-37.4848530816128	56.7581070645656	47.7089498117517	-30.0459405652199	-19.7178884561556	12.2944511262435	92.5862818506651	54.1281320176012	-27.5674725016631	64.0064509136212	54.368016990518	-81.180547636945	112.766146072069	-62.5165456367548	27.7673369792902	135.859450932456	40.9297420067824	16.8095343905455	26.5679063854266	40.6275968316846	-8.84364461706925	-50.1148894583729	-49.3260579804261	51.4885210082579	-51.27662587328	85.2699548545535	-26.5574038305764	-21.717817376859	-47.4235756203717	118.105090298264	-66.5891433014072	-42.4042732436499	25.5482564929464	-43.0404532199129	38.4139542233291	-69.7822283720811	-50.4866641386701	-24.6913517890573	91.9442164425716	-39.7696968858839	59.1070973478614	-4.78100092762812	-57.3913704718897	-7.65641126068066	7.22075961203794	-83.7544945256366	6.03621182272729	-43.2144462513448	-6.3502197660673	57.8695713967735	24.9286892253465	-64.5546078462743	-1.48180184382296	55.3678085015397
HG00142	125.825505459955	46.2018440571064	17.1716550461554	16.6980235222802	-7.48422687471165	-12.1645243584524	-41.4988983493256	68.1946018936476	-63.0745670554347	-45.4568113403931	80.2736151901799	29.6485552884925	-115.184410983502	-151.963870297461	-129.830091164341	85.5697063578388	-52.7499605152566	40.8046209285861	-124.290560647006	79.3201490478359	28.6747193554424	-2.62803141508157	-26.0082733499248	-15.8169804569145	-83.5375113356876	7.61565710666808	-107.152857322494	96.1094642052727	36.0431352589438	84.7335972744549	-49.4348663243326	-54.8234249968513	-19.6691896190998	61.4829084077853	89.6601503368656	-120.206434318964	84.0539108208748	-81.1686891437425	20.613313762818	3.29253602392968	-80.5568833276531	15.2335421783942	-96.9853790267193	-66.5912618308401	130.406599050663	6.82232384479299	74.9926532413052	-46.1126582641051	45.2993464688569	-20.064799079553	-41.9115028572914	68.2466697211522	48.6686173133472	52.6086768406203	-46.2422690102002	-119.169144915068	69.4350071558827	-36.7538960219715	52.8497760786884	-72.8700117704024	7.31902916445441	46.2992959756147	-7.89964162115402	123.009823124833	39.3671408641008	44.5882050905008	19.1962824083323	-50.6194466167452	-54.9943783724008	159.696963889961	-61.2597979610911	144.044992489196	-29.1483574442333	-38.4477583200925	-26.1922346771237	41.5811915817631	-60.9686394291324	-109.585266778404	132.753819337663	-10.1588918742325	-38.4468860045694	-58.6307757630433	-27.2643598077722	-72.1775989698524	55.8920486370297	-78.6277402719918	69.9091696721568	-4.96318059693659	-119.930825092631	-6.56647159015928	4.90305784467649	-30.9881021513775	20.5667177473422	-10.7173606638374	-70.1074751239798	56.0145368252054	-45.693089959891	-36.8556091858864	-5.86770581769411	-1.78424534275868
HG00143	76.9316282070527	29.2201401391475	-37.1932999648594	-48.7943168303991	-59.1677963456552	-19.8080429752404	-32.7218041709387	60.6921826278268	-79.8144044467927	-58.8820523705312	79.453200636463	-43.1116748773863	-47.9786180393867	-42.2687844563379	-52.9830625974775	103.091492985152	-61.6772847774418	42.9810513869714	-88.7230194512049	25.3085160898893	32.2441243217778	-48.0689624467756	-97.5877590670283	-69.1209913199896	-81.030745618159	34.7179603485314	-98.4274786447453	76.9952562539142	137.209839786864	92.024895030608	-76.7812305973257	-64.3634522302263	-36.2338104269374	-37.123763855554	97.4100733242686	-106.309767890481	82.8440563334956	-68.9215686899256	56.7581640962773	18.7987688765546	-36.4798080742532	-54.1136295965629	-81.8986070405479	48.5606185574513	97.3886110278299	17.6406581209412	25.5588891110348	51.3065185601335	-14.5561858329558	-31.2583427585149	-14.1880158820576	99.8586342023317	30.5693388591081	-15.7028743591698	-63.870664546583	-122.285814875771	78.8142232664496	-23.4435225448633	65.0759049048234	-70.2913498897097	-11.8962194750783	97.8776049445381	21.2671305818173	78.524890997824	-20.1269400133435	29.3347282923191	5.37294227756874	-108.848152129157	-50.5265258440401	55.7390925146218	-44.7075140516349	120.324532746464	-44.8166815326202	59.6470468955538	-31.3144919745266	47.5270119504094	-74.3050156237036	-53.0851372337639	149.783329464022	-104.940339864774	36.1467470268948	-47.1426424425225	-52.380089944602	-83.3082526335672	26.5018820695097	-46.5747864145954	98.9182086981059	-29.4859108244309	-65.4005822944161	6.17049144380338	76.841714999301	-42.6829222117038	4.17971446684564	-57.4440305349031	-101.588126747391	25.3922644210664	-96.6912406925027	-52.3898571322683	62.6962612053381	29.6325766084515
HG00145	117.954662209568	48.114367002053	-55.3392881979034	31.4404319401716	7.82987407574148	-14.5297754461692	-44.5368218346671	73.8656647033526	-87.4208371461205	-33.4695029576385	70.0143091762076	-80.496384684454	-112.884800514628	-102.018414934565	-90.0393625579074	118.501282410289	-81.4534687478636	32.9250416362431	-99.163988096388	38.0498635450056	-15.0469154038141	-22.7355821163147	4.9709222630442	-59.1687465895697	-48.6458927236521	-48.7873869620659	-76.4195054962685	34.947335327615	-19.9800722029597	48.044176044725	-32.3101335357656	52.156676003839	-60.5201108801714	-23.7582011483257	42.8540141217558	-75.6881527267987	105.190607276142	-103.368163507744	54.6752065254091	-12.4976163268126	-137.062969114398	95.4489180218464	-104.831153618727	-33.2291487254444	77.2331980062407	-90.44919578172	15.0960099680226	-5.29067375487199	87.3784699980596	-3.84436389017647	-23.0768216829716	97.456002181741	38.2802452477712	-3.75413106383645	-50.1319569755095	-126.097576746512	87.2752071821788	-92.9767553661787	99.1712155852088	-40.4769791158761	-33.4337679202934	112.156766260199	69.1586787565606	99.3752593999498	25.4129702793874	27.5953163695557	-32.7513647954187	-83.3302762257653	-52.2227742943845	97.8136416475054	-48.5256091548351	67.888312136794	-30.3759352032008	-25.1407512651682	-38.624133346737	112.208495521709	-69.3959089672735	39.2104777248139	109.168122690121	-52.6273516759507	124.050365113622	-47.8114943004147	-52.6486667149268	-60.4641245841658	104.213078721912	-55.7943922942424	71.8786175725312	-4.53051437566346	-50.7878504871209	9.74061543254029	-58.6306236316827	0.448646510135099	70.0608560731892	-49.3363994485114	-104.196817851899	52.8363649159069	-112.160617344456	-29.8740098827907	17.7971162703977	52.8618449292221
HG00146	21.8809733356121	38.4306017277827	-41.7251497324611	-58.8230167714799	-10.0931980726419	28.7773897411166	-6.12098904082855	59.9582138080349	-56.2836119005678	-47.9456998167888	52.6728452041953	-33.6763348462285	-47.3859195094758	-28.2611262255107	-106.682585492041	99.8941865284792	-65.5147200605261	74.0089420435658	-89.527412938844	52.764166048891	-54.2796220812182	-21.4513009615145	-33.3812259433757	-78.2281741605427	-96.6983816626601	-3.87213378933811	-97.7346236548655	77.8505026553183	117.148789980507	25.5389719269234	-72.7575765579845	-44.5195594336869	-95.1256883988438	5.41718523833096	50.1339966563978	-101.84485944833	107.534113801413	-112.881187403264	50.587281615383	5.21793803036188	-71.6899528791609	-0.424406823225901	-66.0985394946336	-55.1256480732661	11.7947120093534	37.078799068694	55.5963108327672	47.0508309036259	-18.1490954589102	-12.0671209654169	-36.2423955976251	60.8837505742531	-34.3984993912712	37.6115271248968	-28.4552673429154	-116.919250796319	70.2609232535863	-15.9584776865965	53.7327222092551	-25.5359334577037	14.5110747408825	77.1849697032746	65.3672882634909	33.2699667909901	67.4572719401556	27.9783532873475	-1.9974174445192	-33.7761006212891	-43.6903492093825	65.5377849675488	-52.8874165711528	124.35602840903	-40.0909981252226	-22.0247836139055	-1.42026232169017	55.1672047740161	-92.0323284445553	18.991499290319	55.7510000227344	-120.140996573613	13.2686764840001	-63.1630220249789	-25.7057729662215	-36.234501211112	18.5192595386554	-71.4784268891268	78.0482270958982	2.21961115589118	-48.6590308350213	5.71686688072084	-19.4510478212144	-123.292628776106	111.578010588862	-72.6777061647319	-115.837990322826	68.5747885791049	-90.562583311933	-50.210791240267	13.0930079322744	11.7883861400657
HG00148	79.4851522551073	36.164600860122	-20.6895100210657	-92.4972978205911	-1.29214490813506	-69.8910780980521	-23.6353920052263	88.5717766411239	-55.9591277493225	-21.7273593405639	67.8857256089611	-83.6047331564129	-91.0720999245262	-73.3116988620032	-104.823694138406	48.24986352066	-45.3175775200489	30.5598564859915	-51.5131593140346	131.134062948247	-0.676864388686015	5.98558785921023	-55.2920443671559	-26.6911643327926	-69.5613990493678	28.3466309200751	-79.6750611182081	21.4208054186906	89.0610699543496	60.0307899388204	-41.3178697102276	-50.6718038206205	-73.2351651530866	60.8246193081995	57.80665113739	-80.1295287256547	129.113763338379	-122.628024248994	71.9690790522602	-21.1060877690236	-82.6663186324608	39.4520750616005	-91.6626016888984	10.7461465327014	91.3083922852958	-35.3574527746152	13.1550116816442	45.5201693080324	83.1403206048208	-31.1652447930342	26.3912156006717	18.7450288822348	38.2210548861099	69.154303253011	-65.1352753353	-52.8996705632664	90.7411673757526	-90.950206597147	125.110889745734	-50.483183532982	8.7088068579969	52.4411980967477	64.4432603166557	78.5906300220633	0.879105533561631	-7.45955833653807	3.27024351079726	-57.1852041110966	-61.6011563630049	29.7079469310521	-68.4109259241054	76.2792090682021	-31.1511002055336	-45.3194340923088	-71.4854472221755	71.05567082061	-87.3748142286766	-57.3840790296941	100.362125969912	-71.9601284146418	121.856547030699	-76.2469949026279	-60.1413974482102	-80.3465179411179	43.1705756799933	-52.7255141115165	91.2952131725613	1.81358454889948	-71.733836837599	-6.53092722190914	-43.8451830588043	-70.7133979866402	33.6109894025442	-38.608950209433	-128.549919302539	67.020861702369	-27.0765002273702	-47.991906502225	28.2414150708795	44.0716983217815
HG00149	62.2257065121125	29.3530500672974	-59.3268691995153	-89.6185805568932	-27.9745448253548	-24.59765782219	-10.3812985577622	49.0772279077702	-102.204417734697	-67.645047514474	71.6959896460481	-40.5866889069815	-97.9450851165175	-104.944396088354	-60.4631630931212	117.917232260621	-32.3597428451209	63.4096083232414	-70.1664528745104	-14.2421443758544	0.821362480347599	-10.0856682787615	-31.7755277856285	-41.7970749058627	3.96463405255727	-37.6666444741104	-88.9843379686062	18.1806999989841	13.9151234869285	9.44366909103874	-73.2277520936251	-54.7255188933538	-56.2617413040464	32.7964743963069	44.3910499730388	-78.6635667289751	86.0919865695628	-63.6433069901707	43.3380010697454	10.170953752549	-111.643028807785	83.8805236343885	-74.8606637562693	-57.9464446033984	81.7626191523092	-65.8064491104043	-37.6340290364707	75.5219325013627	65.414097357213	-18.5657382680703	28.0111879496511	56.4863101577843	77.4182935428507	58.9624521630424	-89.3245580840521	-57.308188403603	87.1795991498811	-112.703242273419	49.6601615873536	-46.1363838576212	-17.7199048539346	104.138148752015	43.7952440710892	96.4993913267493	67.0918225730656	42.5207617343588	-46.6414034082138	-69.8492235095652	-72.7041448416245	57.9429681752283	-42.1721529194601	103.766872757294	-28.4015540452813	48.5148760914584	-71.4861529736448	174.130171195499	-9.42470222527374	14.584558734144	93.5415916121445	-85.6053116882741	175.868565704987	-33.8617462867859	-3.07507897180275	-54.4852547712441	29.8770378856174	-52.5711338976172	57.2346600267018	9.62005863763237	-65.3229990750087	-16.4018270354732	-21.3091136302456	-48.5589714729451	5.70493152389504	-40.93129075668	-72.8882494947884	39.8725058963242	-83.5494968797109	-2.67869993015242	26.7774455209966	26.1247649618189
HG00150	145.031321559124	42.5322598189937	-62.6395071125666	61.2064893819438	-17.3304862404793	-23.7467528381718	-34.6814090403298	81.0888276060737	-89.0674157746947	-38.0329876518234	59.9680943082144	-55.0153221767337	-69.930710572453	-97.8229276784195	-100.040208251082	76.8825316137054	-95.6461827709492	39.9856132896986	-81.0780452382824	105.543155634886	67.5537861661074	20.1051853023314	-66.2506039425612	-53.1437652817933	-10.0273729213123	92.4350839918865	-61.9861772298859	46.7188881758835	122.789715910081	87.1057207844107	-64.7809872408491	48.5666626085255	-88.1480915370279	-1.91980391118903	22.8134297121454	-130.663786843221	128.298290077437	-80.0282245652572	32.9534124799995	-7.63894667015207	-48.6547666285977	27.2002290906816	-83.4472341063282	-20.3151320906193	81.2191641788569	32.4265541080393	3.41008990741417	-73.9152113187889	26.774761871427	-43.5511472408486	-7.20893355751863	38.1724797927586	35.2139820146449	76.6154841386906	-81.461913286892	-93.5605205111442	93.236032335342	-87.0324142896991	80.6254710720643	-55.6862108764938	46.5734347703399	53.9019356347055	64.1867512433835	90.3677757952076	-1.61828752025547	63.3851127204153	-17.4658194491249	-65.8763519649931	-56.1812775213336	94.7840608229032	-47.5961993255874	60.6214744629341	-28.3705226367232	-13.470548481799	-80.8230386571975	110.50434509096	-54.8059009100615	70.7768137031761	16.6574761267867	-55.4712028087875	24.2397272980834	-46.1358790518252	-12.9221700411367	-65.1095059394367	7.73895729723092	-40.8473493745574	62.6769009652872	3.33881513988999	-51.2834407976018	6.7658015146457	55.7524858989293	-33.7801397158373	13.43666743702	-68.2386066889704	-141.627870396821	64.9419787024348	-66.9615377855399	-19.3451475597593	-48.1474620297722	28.8311631391832
HG00151	146.549004963232	32.8399876661254	-4.62982274619691	40.7501304730567	-58.1177952833859	7.75414939469778	59.1871491976497	54.0864882770229	-59.9029508159088	-24.2798228576908	73.6084939769597	-90.2803285263812	-113.908475410251	-28.1974457032549	-71.5747902677169	82.1368024678148	-49.5868415325874	50.4945295464612	-54.6837349094402	112.273616570605	-11.2663374685246	-9.16075101259795	-49.0872425319633	-70.6443066078424	-47.0908762819653	-18.585018561832	-70.9642657074483	94.6177135873997	51.3145990695774	44.3105301243653	-9.88489931946131	18.1821499585191	-90.1701286070185	-28.0918184312409	-13.3534340861627	-95.8913373626033	56.1818467942715	-102.408049055002	8.33157152808617	-13.3852994102962	-55.7393802453824	95.2202295036496	-65.6553842209345	-15.9961735705207	64.4351230543818	11.0959061317488	49.6648711180414	-7.07753337958345	25.0171093938504	-36.2986878329123	-24.1533215701735	69.5010312721413	35.3868299340715	42.6913521233006	35.3879108323038	-27.9687578777896	115.334698112533	-50.8105907678729	59.5194990447467	-54.2660335339725	-0.646984692909964	82.4955803612272	9.80087131167696	101.970250730858	71.9416984520373	4.11580749384546	-40.9901952374264	-80.9618987224664	-66.9090674355255	102.647383281294	-48.9573582127303	-25.7102390348567	-39.2684113856904	7.15135771361263	2.47781835456751	58.8674406387448	-53.0294892963158	30.2878160793508	62.4307068287216	-27.711710343577	120.346429775022	-45.8258420600068	-57.2515946374228	-75.3584907222665	14.028460989468	-52.6108657013312	66.3354730738951	-20.9419631334567	-73.2389711587719	-1.38159510549242	-93.9964056497732	-11.4562755198197	-49.1295851837325	-52.635625610875	-81.8624255352331	37.8333533509316	-35.1587025683405	-51.6440549869658	82.009779084712	0.830093294070819
HG00154	9.67682788434294	24.1156551436419	-59.5644166933161	-74.0167210793139	-65.0427577679357	-27.9560347806828	58.1373779561159	66.4361612011672	-93.4401953544603	-42.4521073435792	55.0814570014748	-21.918209548337	-62.1857775690856	-86.8782908934398	-107.592442435134	63.2277587412081	-63.7491132635479	46.4111115911602	-107.117284173143	21.7587159537337	90.1922879001567	-1.73187033794842	-60.3980800457039	-35.0802950033167	-51.7948003058817	-61.4810892348901	-76.6752817953214	51.1263685585623	21.1280022583089	21.8549166415248	-17.2532723329437	-104.272220961953	-98.8800501848627	-28.2350797223343	63.0726994354524	-93.1874511766404	72.6071571735217	-76.4073305395005	41.2100203723883	17.0067055661112	-90.5760924055528	69.8541091377038	-77.4311874053388	-26.8517868871535	60.7979106677698	67.2684108954528	43.9043671123889	-6.68471914069345	19.3468790846714	-21.0402372615821	27.0656690413126	41.9330866867434	31.0642911400606	21.4664008791466	-85.6338046085929	-53.7090359365854	87.4807333435783	2.28513034424003	73.9995361477136	-71.7462769200496	44.5695249618362	110.854166164221	98.3898890614567	54.5745740035954	31.1630363600549	8.99988389250464	23.9479947520201	-96.4672821186817	-61.6074900455257	163.797081668888	-53.3864355063577	80.3647504784699	-26.7530885117676	-11.6839410679289	-17.7613514325804	-20.5791729609523	-57.9068203842221	-7.20723834397125	-49.9743762452875	-72.5284709969585	47.2588116553351	-69.1391065429571	-26.861501084678	-22.51071528031	33.6051075848361	-50.1388770260563	103.578175434307	5.91259240667383	-55.2143483091489	4.64109930290502	-65.5712518975138	-39.7963482103326	16.4555674240831	-34.3769650988029	2.31324322512346	80.595373826719	-46.6600900166854	-96.7519275214188	18.3570117419387	20.5348823124652
HG00155	-35.6971347590883	26.8161660917662	-35.3444129822593	62.1750629786211	-56.5218053243042	0.997854273318426	-20.4363585304417	72.5304539353634	-70.832446215311	-49.4007516966239	63.6123121683862	-18.3890371642113	-119.539583762034	-59.8579191748147	-88.3044387005084	89.2937286431615	-96.3664766151197	40.4263764518829	-91.2184509405085	66.3731937902169	7.32817469107059	14.6280378135177	-25.3826933698902	-69.0520344997968	-93.5481672478978	-89.2986688490919	-91.7690626134085	96.8941666254969	106.162120538948	87.5176438580716	-76.9592821783109	-77.9871469414932	-59.0388198583039	26.0859164413365	97.9170846683963	-92.6838466901188	79.143825880023	-96.7121587277613	40.9555243118204	39.6307533197369	-81.4013635335558	55.5281925834808	-141.417958046408	-32.7857548795353	46.1803064190077	-80.8843281301805	-34.1274192887602	23.3688801895836	46.6921947673773	0.47017968174729	28.2065155562392	58.1832079062653	42.8157905256493	88.9078223778894	-23.3552070141477	-58.7667695631718	99.374278584456	-77.3817322935818	131.373704209448	-76.1595564570211	44.303758859483	25.7677837623494	53.5489490961976	86.1210091597187	-12.1262497697063	-77.0999135802813	17.9717674264131	-78.2622926219648	-46.4952121339173	76.5981008669922	-36.1002906232273	137.948761949046	-21.237185239417	-38.2586870950422	-35.4195872445066	53.0920183835907	-110.141871240968	84.4096361740882	134.287336840093	-81.6702869514638	-37.9453220485531	-50.698953935007	-36.072983846786	-66.3462365986004	27.2199083647289	-70.0658855509038	95.6094828914388	-6.56424126541029	-70.7605413321307	18.6672041169101	30.4356780961446	-79.2362784459543	33.4632479152075	-50.8067120234503	32.7605222060995	38.2632972667751	-11.4199580331668	-18.1765423442298	69.2010580650891	42.7814993054347
HG00157	103.113466207888	20.097822807019	-57.8005617991838	-95.2059016545132	27.6763294403496	-7.28766078957193	9.28836744414665	59.8407485365084	-48.5082346541159	-51.5984126292211	78.1957242708264	-64.5154154352169	-83.2652255873906	-127.341202982058	-85.7162132795468	61.4104301509455	-56.2999709987063	24.5855991719678	-139.490109616799	-2.51223069341449	20.9167170476841	-27.5619762741741	-24.1119037520499	-83.5168239960326	-41.5835922079824	25.3699359487002	-107.9736173722	148.556164767328	51.6373536566044	84.7157221577732	-65.2202142829518	1.37739172818328	-48.4624350586941	27.7794840524426	26.3030317128288	-96.7759259764937	40.439879580754	-83.6879707099771	23.2308681794644	34.130397334111	-48.6241826598665	40.757710591147	-104.553714208669	-38.0601738017841	125.409547723121	-56.2530932771276	-42.5159752493155	33.517496726332	41.0155796887412	-16.2761620714556	-73.2500840763553	83.5380798163678	46.3840800652108	-13.6537661360348	-26.4016964088559	-145.458276406361	77.8000155617487	-21.4024915319152	49.8154198021994	-64.058267075103	35.1367549850422	136.945961924724	64.3344001383431	42.3775721906443	71.7050472242989	-21.9805082087035	-9.50248110490398	-42.5520943128786	-43.2299179293866	28.2848149412497	-52.0061229334526	47.3396575454634	-22.7463437108717	42.9475574533181	-41.8028211638954	120.711671852164	-68.2213076748603	81.6104894587682	82.3908011185677	-24.9163390828397	67.0478545439231	-74.2554316742418	0.297408490438308	-80.9143331250755	111.2083141238	-46.8520165339959	68.0570652898919	-12.0828433601864	-44.1949326957096	1.68315157492354	50.8894925153965	49.8186790902425	56.9868371196477	-54.7509541557343	-61.8708603672949	51.8025718719137	62.9465336877402	-66.5472288334493	33.2919223058773	23.5435373345166
HG00158	38.5459434194425	31.7554301539874	-24.6043971180517	30.1661937615049	-42.0042588175018	-46.1346577218615	28.6538967619504	70.714106176544	-86.6718092012271	-44.1020885158098	64.9701078393923	-91.2711344314346	-98.9656242472012	-169.869108317996	-79.0514726989815	63.3911703310493	-71.9154071649822	45.8793697921776	-62.6172075966845	-2.37786976831578	-13.2610177357909	-27.2148350708025	-27.2092393359946	-57.2523446509955	-86.9375812789168	13.237269010332	-95.8971329429001	114.233799583019	20.5348766997257	-35.1405365040934	-98.8107965437249	6.23278452458516	-46.3399216578979	-1.07804854312109	92.3062138903667	-126.223059707047	72.0097340846826	-102.528567430016	64.1106129537936	8.94671826622215	-36.1969623476659	-0.155478660467395	-61.504033945761	-75.880358535805	25.516954465915	-54.5914244945878	22.7313790025969	34.9837152425025	-64.9572279948573	-27.8498007594338	17.3791328103484	51.1827173871941	-17.8983826945975	31.1098762217862	-54.1870291110823	-49.0846543842681	76.0789775357402	-72.9388207811093	-3.32756374992063	-70.2962647235617	-15.9642361262922	64.9128052735518	72.4751974342009	13.288585554755	-11.1086806656092	-93.0156399215331	-22.0990067231769	-80.6820713606127	-53.4429163682912	169.985438428714	-45.0395490518411	51.9332052850788	-42.3911684423387	-30.8633996389367	-24.6996378870818	90.7233020638356	-74.6165744896671	31.2831089511105	151.104076735972	-42.1976070249325	43.2291555430389	-73.6323655138323	-28.2094604777574	-47.9535941370237	61.8922812547628	-44.2250571576642	102.628422907984	-9.25426501648773	-67.9981523905906	-9.54972092440608	-36.5499426589586	-35.8320338201917	55.6700401579015	-69.5943801189631	-64.7307725625579	65.5277159695753	31.2821968107127	-62.8618341168385	9.0592469686185	28.6659630807571
HG00159	157.119237024161	61.7735804734689	-53.5211402563503	-39.1527582190093	-31.4441839307124	10.8766154600896	-6.06030584198438	74.7533391438313	-77.7750963538889	-35.7302487610114	86.7031014571356	-24.3963081652175	-96.756757943392	-86.111022780721	-97.6524744360513	101.76001822275	-67.764071290724	42.9241560041505	-66.4408833118566	37.0648699823439	8.2278124168003	-25.8409493771999	-35.0501965979471	-44.4671443172533	-0.317830064959459	27.4503132719937	-92.7318045957111	32.7463222880874	93.1184159017387	57.5433017364353	-58.0587134606248	37.5955620927168	-51.3642725189322	84.0069696772451	96.7009787883613	-76.5561522619791	96.0062575868216	-89.7014416940813	57.5638553238647	13.4428385481058	-65.9557544642238	-20.3243649576442	-115.217257662104	-21.2015636741106	83.2614432426929	-27.5979766528991	29.5085641220737	-7.75153747827374	50.7214481331192	-11.5549130797994	-59.9568940368767	61.6601408947177	-23.3282315294101	69.5384169062277	-24.8983006174068	-45.4202858178375	98.2044856618911	-83.2104048308507	7.03681734395051	-80.557344300016	-25.9725090288436	76.9691748374062	5.37840938427149	146.773957239753	-56.9751031670966	58.4535599095833	11.8268650054717	-85.1639339979463	-53.8162758732939	70.899234337378	-57.4788414833804	125.564797069559	-48.1590887230058	9.5686878471436	15.2570523582981	117.48685263875	-19.2910750157829	70.181192303067	4.14840286201818	-14.815653352343	21.6445729749547	-79.0510201709194	-37.6394235295477	-59.2433602960945	52.9669810266113	-64.3512015851526	79.3029474330092	-4.50540391431678	-55.2924803005633	-18.4959203384356	-12.3272918420128	-103.571702923235	-0.654086680764117	-68.9276399349945	-94.9486874340922	50.1696446071685	-81.5546207729583	-71.3410703661636	39.3083218119376	24.3486709846737
HG00160	99.0574681694254	17.1386117724211	-1.58467212093647	-32.8980610566879	17.0413629944107	-7.88281139839278	-5.06277601490699	79.1484310974566	-77.7001114526523	-21.3663301407882	98.5260140942923	6.72486856469724	-83.9848769728717	7.63871886133842	-104.539316268371	71.2136962206238	-43.4020823486259	12.1406807316827	-78.1882345669309	17.280882760633	13.3018598156846	-12.3773130940361	-44.4179919405939	-28.7237535310657	-62.4234268466579	-99.9725695709722	-104.810996568294	76.160264677812	6.13206716531736	96.2220737193885	-70.0480459468741	-89.4323732461041	-93.4256404964227	-53.154432660392	100.305650509084	-95.7649453154318	27.8475421518511	-97.9605287311003	25.7257815877053	27.388480432074	-40.5989337892527	23.4086970457359	-98.1479829775806	-40.8202498656957	55.7910473265142	-47.942659365666	69.9664647047265	-8.50116156525273	90.7268439019107	-40.7485882826275	-16.5287128703774	44.9029349379011	20.2136151489482	66.7424287580467	-15.0423716583681	-105.277917195126	76.7004651666222	-114.687751666064	107.326956125083	-65.7185742298542	-10.7798868060427	117.8204357938	61.6747854491884	-4.76842264716961	10.9009889634722	-55.9075712662352	19.7679474529989	-27.1395874881376	-52.3269119085791	61.806204238386	-30.7488083068711	57.0628728257067	-38.8171923114817	2.99679281825674	7.81166477127714	109.86256514255	-67.9681513402936	71.4800689680801	-18.6858242674058	-90.4489842552249	35.6981939980689	-40.8327738857673	-55.0125188539537	-53.2368228063799	86.0743603140884	-62.7532302045245	58.9762769285716	24.3114949431184	-65.7741867455499	-3.87920165351386	9.05290289832933	-37.3731033017867	-38.1781185538486	-91.4480416370143	-56.7606104192122	59.4646881535791	21.318082363226	-120.128112781834	113.219524938128	1.07108618184718
HG00171	73.1420197058344	37.9978788753517	-12.3296852813502	-30.8572327096484	-28.3363477636977	-17.7708220021628	6.58609988024951	71.008276646787	-63.0994256109914	-34.1143402683008	67.4550299444083	-60.1034977802164	-129.392307752126	-192.565282638735	-49.9010204336493	68.9978836034897	-92.1847112507662	34.5265809916013	-85.3342649027017	77.6400345813023	18.1475958628301	-81.0827144484606	-23.9821947981412	-76.5985731623317	-54.5818141015868	22.2311910608507	-95.8978148284917	81.628736130565	69.9951633226766	-0.257824020680026	-37.5768169512471	-153.831343629863	-77.5973012793195	42.008119413961	22.9581184643329	-58.2388524653911	74.9224457650214	-95.1746666667502	59.3451843016119	11.4782105436282	-43.1371694389236	92.4420762127769	-63.9714648177439	12.3460680208042	85.0155698089408	51.5452653594111	-13.5925375189422	-49.1671037139399	110.229639026127	-19.4461982421034	22.0675617679108	19.4686696465315	47.4341134192591	83.4531744702396	-61.0122710699691	-87.8206245237973	66.2942572627608	-69.0450299242663	82.0970738928154	-49.44903794952	39.8891907528372	51.8183423820224	51.5677350219734	76.4550136308503	67.8792303104381	-31.9774140945579	4.79128711340233	-73.1088793989455	-47.9453523505448	62.0498035966956	-36.0139073034562	34.387053885007	-30.9310714343463	-82.9456975647432	2.32858008498696	66.549524001682	-85.6705505546175	7.51121692455423	98.5893674637865	-110.871095385719	44.4715283775593	-54.3476466099018	-48.848610023147	-74.4815768338437	-18.1295063030344	-55.1780559203824	46.9116799027376	-14.9789828620088	-33.7502975415661	0.71353481846527	73.3855850714591	-28.984288214037	-32.6581976762077	-42.8561175126624	-49.4379349497746	67.4976064708349	7.07787805254489	-38.4798929581923	92.2998423554868	33.1433767826003
HG00173	122.493976554365	20.6149504477369	-1.15752790593592	-15.238724839237	4.92951583307958	-37.6026842052305	24.5549182244086	79.4289871790621	-72.2290595744609	-46.7441214028976	78.2049900607175	-43.7684621482237	-54.8301730464334	-72.7260660485178	-69.9393379597394	81.6997424967348	-48.0059357949276	49.2387192427833	-93.5662657542243	97.6949418706663	66.8670124263773	-35.7151979939148	-48.040743577938	-70.5476793108623	-67.3372239389383	12.1854880697843	-108.7433897537	20.9293082271786	87.8863882612136	53.2980687170378	-54.6863499971335	-1.73645003050756	-68.3092898262866	37.9190690905237	151.877377470508	-70.2849073374292	73.1201067761883	-112.218022696868	42.6602052428106	-2.01978811305769	-72.3723167343714	23.2495706580419	-78.8859784179721	-66.4255448472844	80.9821551652758	-0.0483858144394738	-14.0552687035678	71.7630958175101	13.9873303672006	-27.7969848899244	-29.4118398003835	37.1091765285284	60.0322951615903	43.8534204177226	-69.5914484353265	24.1652928768486	71.8446333992484	-85.9967351093749	64.7630978785117	-67.5965522786734	44.5545994285622	89.1736123296658	38.6661737549858	91.1802605096625	48.8829509790556	-17.7102627916529	-12.2875344646685	-57.4682824511595	-44.7922716089094	109.057756050819	-58.9388307259823	80.9910291743079	-43.6903481358447	-0.803978560649586	-4.67071710524003	129.497890774179	-74.1965080879852	-60.569647787355	5.96268854387838	-18.1985343489466	97.921247668516	-47.3815676128631	-48.2501646083462	-59.1819571160678	59.8825737074361	-47.5498328695546	77.2098026808093	11.4944907150917	-98.4728520668237	-15.4452155496326	41.3796098347844	-33.8806384322406	37.9628908344353	-82.3122780232147	-183.274566355649	26.4502480048571	22.4723427348155	-73.5024940797861	86.9732270117123	-6.25978082996982
HG00174	-7.83586169641889	47.9392152982364	8.55487528707663	-1.33935442241715	31.4785434452659	-39.9155438695502	4.1465866849171	57.3996142455029	-113.21326410811	-37.6692205164848	55.7274821762419	-26.6299090649103	-80.0975087513103	-104.699860505361	-77.1078011278221	41.4097692788533	-64.4187750540938	34.2263251553958	-85.6591795748873	25.5134438359429	44.351959344551	0.278924077286572	-57.7608217178461	-76.9606944976627	-74.6313069230642	20.3008642474986	-132.072751389513	63.3037296056679	-0.804035428472012	65.737916688858	-127.811111760103	-18.3808358322747	-95.8359345207475	62.6228746237981	59.79970521796	-111.172622825429	58.4527746878871	-98.4960595962128	86.7368271643796	-18.7120573660013	-98.2439355144598	-19.097313780268	-90.920246827978	-8.49216455990285	105.616240507783	21.8928800463963	16.8204856886605	-80.3356942095515	114.766628823148	5.90931081241151	9.57006100886474	40.1544323173438	32.1682922152215	-1.18200454618006	-98.1724333894547	-75.4022209851984	92.1935938768853	8.7689911474324	44.7592173429138	-53.5731107105077	25.7806873987694	21.6189388497617	104.906840040672	128.875942705499	41.6293160283263	-66.6016247779184	-23.3329424244047	-73.2327357886752	-65.3995593280662	39.4454151522156	-60.9757527138174	3.79245216751928	-25.9516421497458	-4.22338839580432	-71.6781993992562	58.3703000047914	-76.4729951278364	4.97253847797263	82.4761128906885	-46.9875613699073	84.7477473412722	-62.2851497875626	-30.2923912935489	-81.7947858990655	118.173161511773	-43.4218462195425	52.9973552033681	11.8619394728063	-40.6755840407953	4.1968924207984	-26.8846692271129	-50.9478639811056	-30.6111978618484	-63.5391391311454	-73.7129539224313	58.0407406956412	32.1563483594108	-87.8729545006319	93.3246844769711	12.7359124882531
HG00176	137.01808823225	37.919768096392	-66.6570256971495	-3.73617180092039	15.1092276403242	-24.4005133512256	-23.670284276083	54.7759666222542	-82.2562500509579	-44.4078289238326	55.8504807578363	-33.1099748331736	-91.2564755268362	-148.132773605404	-72.1635105938541	92.3640654658955	-68.9836295365914	22.0403810170573	-84.9307440393788	40.924004684945	-30.2875517874539	6.13674373074455	-48.1313392436798	-36.2554226174932	-45.1549633420916	17.0401138640093	-89.3911590399891	89.1350277738867	66.4450112867679	94.2633237672617	-59.8840947246082	-153.550415074434	-62.5922661787959	-17.3259114971396	25.7457698644555	-126.197989987697	41.3865009171289	-75.4007487318815	60.4607920509127	-17.5111168113471	-91.8924011970597	-53.2072783921455	-102.528143361635	-14.359590310009	54.9633206266395	-72.7706246286207	23.4489335549287	49.617821609344	50.3872663837608	-39.6617465641406	-38.8469372025709	58.4769426663539	56.8213984168575	19.9674217622569	-113.70759726549	31.1250384521497	99.7284700284306	-98.0927982866556	39.0471062187749	-54.5667204760451	15.401286536803	10.5111317807455	67.5394785827743	90.525523576583	-12.360711985975	-53.505239081993	9.75012795644012	-13.2136641046972	-60.685413709203	99.3995286613449	-60.022007642614	95.4628497151658	-25.6801179129205	17.2076545850398	-15.3824361899294	90.0306973189085	-104.316332157927	77.4138379413237	106.737578585712	-95.7163705370968	21.9346911087942	-82.131441845358	-41.8253821680793	-58.4788251310438	48.6747216598346	-52.4870047889801	74.4392316485945	-7.07733656178487	-41.1702048977226	-4.37262856131352	-18.1126458221417	15.604230806596	-47.1846951363729	-54.7458742613752	-95.2574442961947	76.6639515691818	-110.949534172522	-44.7059426672807	65.1480007340051	5.97727664255967
